{"learner":{"attributes":{},"feature_names":["age","sex","nyha","ckd","rhythm","TRgrade","MRgrade","LVMi","LVEF","LAVI","ee_ratio","SVi","TAPSE","PAPs","RVFWS","LVGLS","PALS","tapse_paps","rvfws_paps"],"feature_types":["int","int","int","int","int","int","int","int","int","int","float","int","int","int","float","float","int","float","float"],"gradient_booster":{"model":{"gbtree_model_param":{"num_parallel_tree":"1","num_trees":"51"},"iteration_indptr":[0,1,2,3,4,5,6,7,8,9,10,11,12,13,14,15,16,17,18,19,20,21,22,23,24,25,26,27,28,29,30,31,32,33,34,35,36,37,38,39,40,41,42,43,44,45,46,47,48,49,50,51],"tree_info":[0,0,0,0,0,0,0,0,0,0,0,0,0,0,0,0,0,0,0,0,0,0,0,0,0,0,0,0,0,0,0,0,0,0,0,0,0,0,0,0,0,0,0,0,0,0,0,0,0,0,0],"trees":[{"base_weights":[-3.4243644E-3,4.466397E-1,-4.4757265E-1,2.6219848E-1,1.267326E0,-5.812814E-1,-2.1068038E-2,4.9862826E-1,-2.8585517E-1,1.0436032E-1,2.3499392E-2,-6.662147E-1,-2.935546E-1,1.449451E-2,-2.6046092E-2,6.422755E-1,-7.5369934E-3,7.028383E-3,-3.0917237E-2,-7.383341E-1,-9.185066E-3,-3.3641215E-2,4.4403984E-3,8.674057E-1,2.1642637E-1,-2.595523E-2,-8.233791E-1,8.970077E-3,5.7761222E-2,3.228469E-2,-1.3802036E-2,-4.5236412E-2,-3.0163774E-2],"categories":[],"categories_nodes":[],"categories_segments":[],"categories_sizes":[],"default_left":[0,0,0,0,0,0,0,0,0,0,0,0,0,0,0,0,0,0,0,0,0,0,0,0,0,0,0,0,0,0,0,0,0],"id":0,"left_children":[1,3,5,7,9,11,13,15,17,-1,-1,19,21,-1,-1,23,-1,-1,-1,25,-1,-1,-1,27,29,-1,31,-1,-1,-1,-1,-1,-1],"loss_changes":[5.082337E1,1.8783697E1,7.2851067E0,1.3667033E1,1.3997768E1,2.1842384E0,5.0594435E0,6.932604E0,4.637017E0,0E0,0E0,2.453411E0,3.5376499E0,0E0,0E0,5.5835514E0,0E0,0E0,0E0,7.7318954E-1,0E0,0E0,0E0,7.524891E0,4.860953E0,0E0,2.5439453E-1,0E0,0E0,0E0,0E0,0E0,0E0],"parents":[2147483647,0,0,1,1,2,2,3,3,4,4,5,5,6,6,7,7,8,8,11,11,12,12,15,15,19,19,23,23,24,24,26,26],"right_children":[2,4,6,8,10,12,14,16,18,-1,-1,20,22,-1,-1,24,-1,-1,-1,26,-1,-1,-1,28,30,-1,32,-1,-1,-1,-1,-1,-1],"split_conditions":[1.6E1,5.7E1,4.7E1,1.41E1,1E0,3E0,1.67E1,1.96E2,5.5E-1,1.0436032E-1,2.3499392E-2,1.6E1,2.45E1,1.449451E-2,-2.6046092E-2,4.5E1,-7.5369934E-3,7.028383E-3,-3.0917237E-2,7.1E-1,-9.185066E-3,-3.3641215E-2,4.4403984E-3,3.8E1,3.8E-1,-2.595523E-2,8.3E1,8.970077E-3,5.7761222E-2,3.228469E-2,-1.3802036E-2,-4.5236412E-2,-3.0163774E-2],"split_indices":[16,13,9,15,1,2,15,7,17,0,0,10,14,0,0,13,0,0,0,18,0,0,0,9,17,0,0,0,0,0,0,0,0],"split_type":[0,0,0,0,0,0,0,0,0,0,0,0,0,0,0,0,0,0,0,0,0,0,0,0,0,0,0,0,0,0,0,0,0],"sum_hessian":[2.5225008E2,1.2528786E2,1.2696222E2,1.0337486E2,2.1913E1,9.638326E1,3.0578959E1,7.228246E1,3.10924E1,1.0006194E1,1.1906805E1,7.340083E1,2.2982433E1,1.9110437E1,1.1468522E1,5.919812E1,1.3084342E1,1.3874884E1,1.7217516E1,6.339521E1,1.0005621E1,1.1156513E1,1.1825919E1,3.8047157E1,2.1150963E1,1.9704552E1,4.369066E1,1.1700795E1,2.6346361E1,1.1134363E1,1.0016601E1,2.962934E1,1.406132E1],"tree_param":{"num_deleted":"0","num_feature":"19","num_nodes":"33","size_leaf_vector":"1"}},{"base_weights":[1.6303413E-2,4.8125207E-1,-3.2820815E-1,3.3324748E-1,6.961391E-2,1.4881125E-1,-5.099708E-1,9.638808E-2,6.963501E-1,4.670279E-1,-2.5305737E-2,-5.975535E-1,4.118361E-3,-1.794763E-1,3.479774E-2,5.911055E-2,3.7978191E-3,5.1118053E-2,4.752483E-3,-4.9163756E-1,-4.2523365E-2,4.5997355E-2,-2.9656176E-2,-2.1637933E-4,-6.405213E-1,-1.9551547E-2,1.672208E-2,-3.9034992E-2,-2.0515278E-2],"categories":[],"categories_nodes":[],"categories_segments":[],"categories_sizes":[],"default_left":[0,0,0,0,0,0,0,0,0,0,0,0,0,0,0,0,0,0,0,0,0,0,0,0,0,0,0,0,0],"id":1,"left_children":[1,3,5,7,-1,9,11,13,15,17,-1,19,-1,21,-1,-1,-1,-1,-1,23,-1,25,-1,-1,27,-1,-1,-1,-1],"loss_changes":[4.1353394E1,1.4349619E1,1.2935709E1,8.1741905E0,0E0,8.926192E0,5.632492E0,9.909009E0,1.1264864E1,5.806983E0,0E0,2.096695E0,0E0,3.8800128E0,0E0,0E0,0E0,0E0,0E0,4.969942E0,0E0,3.618006E0,0E0,0E0,1.3736897E0,0E0,0E0,0E0,0E0],"parents":[2147483647,0,0,1,1,2,2,3,3,5,5,6,6,7,7,8,8,9,9,11,11,13,13,19,19,21,21,24,24],"right_children":[2,4,6,8,-1,10,12,14,16,18,-1,20,-1,22,-1,-1,-1,-1,-1,24,-1,26,-1,-1,28,-1,-1,-1,-1],"split_conditions":[5.7E-1,8.8E1,1.4E1,5.2E1,6.961391E-2,5.8E1,1.46E2,5.1E1,1.92E1,7E-1,-2.5305737E-2,1.19E2,4.118361E-3,4.3E1,3.479774E-2,5.911055E-2,3.7978191E-3,5.1118053E-2,4.752483E-3,1.62E1,-4.2523365E-2,3.7E1,-2.9656176E-2,-2.1637933E-4,3.2E1,-1.9551547E-2,1.672208E-2,-3.9034992E-2,-2.0515278E-2],"split_indices":[17,0,15,9,0,8,7,13,10,17,0,7,0,13,0,0,0,0,0,15,0,9,0,0,13,0,0,0,0],"split_type":[0,0,0,0,0,0,0,0,0,0,0,0,0,0,0,0,0,0,0,0,0,0,0,0,0,0,0,0,0],"sum_hessian":[2.5618185E2,1.0886375E2,1.4731812E2,9.482444E1,1.4039311E1,4.0696136E1,1.0662199E2,5.8154503E1,3.6669937E1,2.7581623E1,1.31145115E1,9.2880005E1,1.3741978E1,4.030882E1,1.7845684E1,2.005685E1,1.6613085E1,1.0362627E1,1.7218996E1,6.753952E1,2.5340487E1,2.6663628E1,1.3645193E1,1.6046602E1,5.149292E1,1.0459917E1,1.620371E1,3.0518818E1,2.09741E1],"tree_param":{"num_deleted":"0","num_feature":"19","num_nodes":"29","size_leaf_vector":"1"}},{"base_weights":[-3.728926E-2,-1.4859898E-1,6.8892814E-2,2.2845958E-1,-4.664323E-1,8.730755E-2,4.556091E-2,-2.7357695E-1,-6.966358E-1,3.566278E-2,-4.0206622E-2,-1.7262349E-1,-3.7885368E-2,-2.0106586E-2,-3.897116E-2,-4.165692E-1,1.7901349E-1,8.405713E-3,-3.2497624E-1,-3.3039313E-2,-1.9857693E-3,2.6760802E-2,-6.5319077E-3,-3.8318943E-2,-1.740307E-3],"categories":[],"categories_nodes":[],"categories_segments":[],"categories_sizes":[],"default_left":[0,0,0,0,0,0,0,0,0,0,0,0,0,0,0,0,0,0,0,0,0,0,0,0,0],"id":2,"left_children":[1,3,-1,5,7,9,-1,11,13,-1,15,17,-1,-1,-1,19,21,-1,23,-1,-1,-1,-1,-1,-1],"loss_changes":[4.0842003E1,2.8877327E1,0E0,1.0567424E1,5.6073475E0,7.4242363E0,0E0,3.4228358E0,1.1222973E0,0E0,6.503612E0,3.245092E0,0E0,0E0,0E0,2.6410704E0,5.578245E0,0E0,5.4565544E0,0E0,0E0,0E0,0E0,0E0,0E0],"parents":[2147483647,0,0,1,1,3,3,4,4,5,5,7,7,8,8,10,10,11,11,15,15,16,16,18,18],"right_children":[2,4,-1,6,8,10,-1,12,14,-1,16,18,-1,-1,-1,20,22,-1,24,-1,-1,-1,-1,-1,-1],"split_conditions":[1E0,1.5E1,6.8892814E-2,8.7E1,1.67E1,3E-1,4.556091E-2,9.5E-1,5.9E1,3.566278E-2,4E-1,5.4E1,-3.7885368E-2,-2.0106586E-2,-3.897116E-2,2E1,1E0,8.405713E-3,6.1E1,-3.3039313E-2,-1.9857693E-3,2.6760802E-2,-6.5319077E-3,-3.8318943E-2,-1.740307E-3],"split_indices":[3,16,0,0,15,17,0,18,8,0,18,8,0,0,0,12,1,0,8,0,0,0,0,0,0],"split_type":[0,0,0,0,0,0,0,0,0,0,0,0,0,0,0,0,0,0,0,0,0,0,0,0,0],"sum_hessian":[2.5698245E2,2.3907292E2,1.790953E1,1.0947706E2,1.2959587E2,9.165614E1,1.7820915E1,7.1709175E1,5.7886692E1,1.4734268E1,7.6921875E1,6.0458595E1,1.1250584E1,1.3987078E1,4.3899616E1,2.7981794E1,4.894008E1,1.8648243E1,4.1810352E1,1.6521646E1,1.1460146E1,2.2420542E1,2.6519537E1,1.5932667E1,2.5877684E1],"tree_param":{"num_deleted":"0","num_feature":"19","num_nodes":"25","size_leaf_vector":"1"}},{"base_weights":[-2.8217034E-2,-1.9994992E-1,8.4164256E-1,-2.933172E-1,4.376766E-2,1.2001507E0,1.3910788E-2,1.0030184E-1,-5.2160764E-1,2.3877999E-2,8.5782275E-2,-7.7584274E-2,3.79814E-2,-6.503303E-1,-1.5285265E-1,1.5557319E-2,-2.2480732E-1,-4.1081783E-1,-7.3644024E-1,1.7731637E-2,-3.793909E-1,-2.3479125E-2,-2.8324893E-4,-5.749484E-3,-2.9254327E-2,-3.0262306E-2,-4.2637642E-2,-3.6316626E-3,-3.123953E-2],"categories":[],"categories_nodes":[],"categories_segments":[],"categories_sizes":[],"default_left":[0,0,0,0,0,0,0,0,0,0,0,0,0,0,0,0,0,0,0,0,0,0,0,0,0,0,0,0,0],"id":3,"left_children":[1,3,5,7,-1,9,-1,11,13,-1,-1,15,-1,17,19,-1,21,23,25,-1,27,-1,-1,-1,-1,-1,-1,-1,-1],"loss_changes":[3.8810978E1,2.2026987E1,8.319906E0,1.8047966E1,0E0,8.820961E0,0E0,8.779276E0,5.924774E0,0E0,0E0,3.4729207E0,0E0,1.6313324E0,4.060131E0,0E0,2.3418722E0,1.3276558E0,5.170822E-1,0E0,1.7681324E0,0E0,0E0,0E0,0E0,0E0,0E0,0E0,0E0],"parents":[2147483647,0,0,1,1,2,2,3,3,5,5,7,7,8,8,11,11,13,13,14,14,16,16,17,17,18,18,20,20],"right_children":[2,4,6,8,-1,10,-1,12,14,-1,-1,16,-1,18,20,-1,22,24,26,-1,28,-1,-1,-1,-1,-1,-1,-1,-1],"split_conditions":[5.1E1,1E0,2.1E1,1.36E1,4.376766E-2,1E0,1.3910788E-2,5.8E1,4.7E1,2.3877999E-2,8.5782275E-2,1.15E2,3.79814E-2,5.7E1,6E-1,1.5557319E-2,3E0,4.3E1,2.3E1,1.7731637E-2,1.67E1,-2.3479125E-2,-2.8324893E-4,-5.749484E-3,-2.9254327E-2,-3.0262306E-2,-4.2637642E-2,-3.6316626E-3,-3.123953E-2],"split_indices":[13,3,12,15,0,6,0,9,9,0,0,7,0,8,17,0,2,11,12,0,15,0,0,0,0,0,0,0,0],"split_type":[0,0,0,0,0,0,0,0,0,0,0,0,0,0,0,0,0,0,0,0,0,0,0,0,0,0,0,0,0],"sum_hessian":[2.5768112E2,2.1583904E2,4.18421E1,1.9926437E2,1.6574661E1,2.4880537E1,1.6961561E1,7.335174E1,1.25912636E2,1.1161459E1,1.3719078E1,5.846123E1,1.4890506E1,9.2766655E1,3.3145973E1,1.5753073E1,4.270816E1,2.6057974E1,6.670869E1,1.0055175E1,2.30908E1,1.9634363E1,2.3073795E1,1.0275217E1,1.5782756E1,3.42642E1,3.2444485E1,1.0838411E1,1.2252388E1],"tree_param":{"num_deleted":"0","num_feature":"19","num_nodes":"29","size_leaf_vector":"1"}},{"base_weights":[4.449832E-2,-1.4614844E-1,9.276881E-1,-2.3946753E-1,4.4871997E-2,7.767487E-2,4.933694E-1,9.766096E-2,-4.9834898E-1,4.2122785E-2,5.996695E-4,-2.7578142E-2,3.7234202E-2,-3.949454E-1,-4.1951615E-2,1.4705017E-1,-2.4795575E-2,9.7603985E-4,-5.0242597E-1,2.1525042E-4,2.8593516E-2,-3.310999E-2,-1.23981675E-2],"categories":[],"categories_nodes":[],"categories_segments":[],"categories_sizes":[],"default_left":[0,0,0,0,0,0,0,0,0,0,0,0,0,0,0,0,0,0,0,0,0,0,0],"id":4,"left_children":[1,3,5,7,-1,-1,9,11,13,-1,-1,15,-1,17,-1,19,-1,-1,21,-1,-1,-1,-1],"loss_changes":[4.2755352E1,2.0573217E1,1.1484867E1,1.686477E1,0E0,0E0,4.707434E0,6.869953E0,3.5137482E0,0E0,0E0,5.943655E0,0E0,3.824113E0,0E0,3.2150383E0,0E0,0E0,2.6016445E0,0E0,0E0,0E0,0E0],"parents":[2147483647,0,0,1,1,2,2,3,3,6,6,7,7,8,8,11,11,13,13,15,15,18,18],"right_children":[2,4,6,8,-1,-1,10,12,14,-1,-1,16,-1,18,-1,20,-1,-1,22,-1,-1,-1,-1],"split_conditions":[5.1E1,1E0,1E0,1.6E1,4.4871997E-2,7.767487E-2,5.4E1,8.7E1,9.5E-1,4.2122785E-2,5.996695E-4,1E0,3.7234202E-2,5.4E1,-4.1951615E-2,2.43E1,-2.4795575E-2,9.7603985E-4,4.1E1,2.1525042E-4,2.8593516E-2,-3.310999E-2,-1.23981675E-2],"split_indices":[13,3,4,16,0,0,8,0,18,0,0,5,0,8,0,14,0,0,9,0,0,0,0],"split_type":[0,0,0,0,0,0,0,0,0,0,0,0,0,0,0,0,0,0,0,0,0,0,0],"sum_hessian":[2.5212068E2,2.0804605E2,4.407463E1,1.916766E2,1.6369448E1,1.700102E1,2.7073612E1,8.352669E1,1.0814991E2,1.5258378E1,1.1815234E1,7.0783134E1,1.274355E1,8.462421E1,2.3525705E1,5.205814E1,1.8724998E1,1.7594542E1,6.702966E1,3.9721367E1,1.2336769E1,4.0191555E1,2.6838112E1],"tree_param":{"num_deleted":"0","num_feature":"19","num_nodes":"23","size_leaf_vector":"1"}},{"base_weights":[-3.1218726E-2,-1.474258E-1,1.1663569E0,1.8095446E-1,-4.574265E-1,2.4458561E-2,8.644654E-2,4.7555405E-1,-4.493999E-2,-5.308617E-2,-5.822973E-1,-1.952356E-2,8.578423E-1,-2.1727929E-1,2.488689E-2,-2.1967929E-2,2.2456083E-2,-6.425927E-1,-7.2044865E-3,-2.3739316E-2,2.6266558E-2,6.343422E-2,1.9622797E-2,-4.950953E-1,4.8556585E-2,-5.368228E-1,-4.2531382E-2,-3.8778174E-3,-3.9939146E-2,-1.6181594E-2,2.2024287E-2,-4.0428624E-2,-1.8835543E-2],"categories":[],"categories_nodes":[],"categories_segments":[],"categories_sizes":[],"default_left":[0,0,0,0,0,0,0,0,0,0,0,0,0,0,0,0,0,0,0,0,0,0,0,0,0,0,0,0,0,0,0,0,0],"id":5,"left_children":[1,3,5,7,9,-1,-1,11,13,15,17,19,21,23,-1,-1,-1,25,-1,-1,-1,-1,-1,27,29,31,-1,-1,-1,-1,-1,-1,-1],"loss_changes":[3.6996853E1,2.4727314E1,8.113672E0,7.8925624E0,6.271019E0,0E0,0E0,9.748404E0,6.454623E0,6.1239123E0,2.42445E0,6.0494013E0,5.053934E0,3.8791206E0,0E0,0E0,0E0,1.3796272E0,0E0,0E0,0E0,0E0,0E0,3.185902E0,4.1664715E0,2.2205143E0,0E0,0E0,0E0,0E0,0E0,0E0,0E0],"parents":[2147483647,0,0,1,1,2,2,3,3,4,4,7,7,8,8,9,9,10,10,11,11,12,12,13,13,17,17,23,23,24,24,25,25],"right_children":[2,4,6,8,10,-1,-1,12,14,16,18,20,22,24,-1,-1,-1,26,-1,-1,-1,-1,-1,28,30,32,-1,-1,-1,-1,-1,-1,-1],"split_conditions":[1E0,1.4E1,3.6E1,3.4E1,5.5E-1,2.4458561E-2,8.644654E-2,8E1,4.9E1,1.2E2,1.47E2,5E1,9E0,1.35E1,2.488689E-2,-2.1967929E-2,2.2456083E-2,1.17E2,-7.2044865E-3,-2.3739316E-2,2.6266558E-2,6.343422E-2,1.9622797E-2,4.9E1,3.9E1,8.8E1,-4.2531382E-2,-3.8778174E-3,-3.9939146E-2,-1.6181594E-2,2.2024287E-2,-4.0428624E-2,-1.8835543E-2],"split_indices":[3,15,13,11,17,0,0,0,11,7,7,9,16,10,0,0,0,7,0,0,0,0,0,8,11,7,0,0,0,0,0,0,0],"split_type":[0,0,0,0,0,0,0,0,0,0,0,0,0,0,0,0,0,0,0,0,0,0,0,0,0,0,0,0,0,0,0,0,0],"sum_hessian":[2.636099E2,2.4109233E2,2.2517561E1,1.1727768E2,1.2381465E2,1.1066287E1,1.1451274E1,5.041886E1,6.685882E1,2.9551146E1,9.426351E1,2.2382114E1,2.8036747E1,5.1199047E1,1.565977E1,1.6774336E1,1.277681E1,8.2452065E1,1.1811443E1,1.2263628E1,1.0118486E1,1.3974235E1,1.4062511E1,2.4613699E1,2.658535E1,5.7034718E1,2.5417347E1,1.089272E1,1.3720978E1,1.3725467E1,1.2859882E1,1.9643978E1,3.739074E1],"tree_param":{"num_deleted":"0","num_feature":"19","num_nodes":"33","size_leaf_vector":"1"}},{"base_weights":[8.756949E-3,2.95867E-1,-3.252258E-1,1.9814833E-1,5.794521E-2,-4.8467198E-1,2.0579161E-1,4.1538984E-2,9.5029004E-2,4.333243E-3,-5.659956E-1,-9.447717E-3,2.7628342E-2,2.1359092E-1,-2.496201E-2,-6.1259913E-1,-1.3232352E-2,1.3548052E-2,6.0964423E-1,-6.849674E-1,-1.4755783E-2,1.633547E-2,-1.248433E-2,4.4739958E-2,1.0983843E-2,-1.9705677E-2,-4.2581175E-2],"categories":[],"categories_nodes":[],"categories_segments":[],"categories_sizes":[],"default_left":[0,0,0,0,0,0,0,0,0,0,0,0,0,0,0,0,0,0,0,0,0,0,0,0,0,0,0],"id":6,"left_children":[1,3,5,7,-1,9,11,-1,13,-1,15,-1,-1,17,-1,19,-1,21,23,25,-1,-1,-1,-1,-1,-1,-1],"loss_changes":[2.3897825E1,1.1071157E1,9.855206E0,7.8522625E0,0E0,4.1800976E0,3.8427007E0,0E0,7.5516043E0,0E0,9.328041E-1,0E0,0E0,7.026465E0,0E0,1.3317509E0,0E0,5.029047E0,3.1144028E0,2.263054E0,0E0,0E0,0E0,0E0,0E0,0E0,0E0],"parents":[2147483647,0,0,1,1,2,2,3,3,5,5,6,6,8,8,10,10,13,13,15,15,17,17,18,18,19,19],"right_children":[2,4,6,8,-1,10,12,-1,14,-1,16,-1,-1,18,-1,20,-1,22,24,26,-1,-1,-1,-1,-1,-1,-1],"split_conditions":[1.6E1,8.9E1,4.7E1,2.9E-1,5.794521E-2,1.31E1,2.21E1,4.1538984E-2,1.64E1,4.333243E-3,1.66E1,-9.447717E-3,2.7628342E-2,8.3E1,-2.496201E-2,3E0,-1.3232352E-2,4.7E1,1.41E2,2.37E1,-1.4755783E-2,1.633547E-2,-1.248433E-2,4.4739958E-2,1.0983843E-2,-1.9705677E-2,-4.2581175E-2],"split_indices":[16,0,9,17,0,15,14,0,15,0,10,0,0,0,0,2,0,9,7,14,0,0,0,0,0,0,0],"split_type":[0,0,0,0,0,0,0,0,0,0,0,0,0,0,0,0,0,0,0,0,0,0,0,0,0,0,0],"sum_hessian":[2.472183E2,1.3299907E2,1.1421924E2,1.2057624E2,1.2422829E1,8.791013E1,2.6309101E1,1.5910389E1,1.0466585E2,1.0945702E1,7.696443E1,1.2516386E1,1.3792715E1,8.77913E1,1.6874552E1,6.576154E1,1.1202885E1,5.9016712E1,2.8774588E1,5.261159E1,1.3149957E1,2.6842255E1,3.2174458E1,1.5873151E1,1.2901438E1,2.03904E1,3.222119E1],"tree_param":{"num_deleted":"0","num_feature":"19","num_nodes":"27","size_leaf_vector":"1"}},{"base_weights":[-2.5256254E-2,-1.2615223E-1,9.921218E-1,-2.2837034E-1,6.532423E-1,7.46237E-2,1.8024808E-2,3.1453267E-2,-4.5744154E-1,-7.2350423E-3,5.7867642E-2,-1.3414106E-1,2.7391124E-1,-3.9136642E-1,-4.0948037E-2,8.8673815E-2,-2.684443E-2,-3.8597598E-3,4.8202492E-2,-2.0451087E-1,-5.1498514E-1,-1.645612E-2,1.6407548E-2,1.883824E-2,-2.2282403E-2,-2.1493016E-2,1.9934347E-2,-3.391362E-2,-1.9003714E-2],"categories":[],"categories_nodes":[],"categories_segments":[],"categories_sizes":[],"default_left":[0,0,0,0,0,0,0,0,0,0,0,0,0,0,0,0,0,0,0,0,0,0,0,0,0,0,0,0,0],"id":7,"left_children":[1,3,5,7,9,-1,-1,11,13,-1,-1,15,17,19,-1,21,-1,23,-1,25,27,-1,-1,-1,-1,-1,-1,-1,-1],"loss_changes":[2.6803762E1,1.905749E1,6.9084682E0,1.2546583E1,1.1340842E1,0E0,0E0,4.0354023E0,2.3540936E0,0E0,0E0,5.4182825E0,7.814662E0,2.125577E0,0E0,4.049033E0,0E0,5.2207055E0,0E0,5.6239867E0,1.0081635E0,0E0,0E0,0E0,0E0,0E0,0E0,0E0,0E0],"parents":[2147483647,0,0,1,1,2,2,3,3,4,4,7,7,8,8,11,11,12,12,13,13,15,15,17,17,19,19,20,20],"right_children":[2,4,6,8,10,-1,-1,12,14,-1,-1,16,18,20,-1,22,-1,24,-1,26,28,-1,-1,-1,-1,-1,-1,-1,-1],"split_conditions":[1E0,5.7E1,6E-1,1.4E1,7.9E1,7.46237E-2,1.8024808E-2,1.1E1,1.01E0,-7.2350423E-3,5.7867642E-2,1.2E1,5.4E1,2.2E1,-4.0948037E-2,4.3E1,-2.684443E-2,4.2E1,4.8202492E-2,2.1E1,3.8E1,-1.645612E-2,1.6407548E-2,1.883824E-2,-2.2282403E-2,-2.1493016E-2,1.9934347E-2,-3.391362E-2,-1.9003714E-2],"split_indices":[3,13,18,15,0,0,0,15,18,0,0,16,9,12,0,9,0,9,0,12,9,0,0,0,0,0,0,0,0],"split_type":[0,0,0,0,0,0,0,0,0,0,0,0,0,0,0,0,0,0,0,0,0,0,0,0,0,0,0,0,0],"sum_hessian":[2.5890036E2,2.363381E2,2.2562248E1,2.0956102E2,2.6777079E1,1.1828897E1,1.0733352E1,9.859384E1,1.10967186E2,1.06432E1,1.6133879E1,5.884829E1,3.974555E1,9.5580444E1,1.5386747E1,3.838958E1,2.045871E1,2.9048391E1,1.0697159E1,3.9113262E1,5.646718E1,1.3850829E1,2.453875E1,1.568344E1,1.3364951E1,2.868439E1,1.0428873E1,2.372475E1,3.2742428E1],"tree_param":{"num_deleted":"0","num_feature":"19","num_nodes":"29","size_leaf_vector":"1"}},{"base_weights":[1.23648355E-2,3.15636E-1,-3.1508097E-1,6.218633E-2,2.2565636E-1,-3.9341113E-1,1.9104058E-2,9.8052576E-2,7.018267E-1,-5.077912E-1,-2.8585846E-2,-1.4801419E-1,4.4992378E-1,5.0003E-2,1.1646041E-2,-5.612077E-1,-5.1189037E-3,-2.2159358E-2,1.9222273E-2,-4.956285E-2,-2.7918948E-2,6.5177195E-2,1.178227E-1,-3.634327E-1,-6.996171E-1,8.475527E-3,-1.4213445E-2,3.266748E-2,-1.5772989E-2,-3.1471163E-2,6.2955967E-3,-4.6550434E-2,-2.8383443E-2],"categories":[],"categories_nodes":[],"categories_segments":[],"categories_sizes":[],"default_left":[0,0,0,0,0,0,0,0,0,0,0,0,0,0,0,0,0,0,0,0,0,0,0,0,0,0,0,0,0,0,0,0,0],"id":8,"left_children":[1,3,5,-1,7,9,-1,11,13,15,17,19,21,-1,-1,23,-1,-1,-1,25,-1,-1,27,29,31,-1,-1,-1,-1,-1,-1,-1,-1],"loss_changes":[2.5540588E1,1.0868289E1,6.904705E0,0E0,7.4004006E0,4.6460094E0,0E0,8.561332E0,3.3774767E0,1.7826042E0,4.9168525E0,2.3352835E0,1.1362357E1,0E0,0E0,1.7947674E0,0E0,0E0,0E0,2.5300362E0,0E0,0E0,7.246966E0,4.361383E0,7.8297806E-1,0E0,0E0,0E0,0E0,0E0,0E0,0E0,0E0],"parents":[2147483647,0,0,1,1,2,2,4,4,5,5,7,7,8,8,9,9,10,10,11,11,12,12,15,15,19,19,22,22,23,23,24,24],"right_children":[2,4,6,-1,8,10,-1,12,14,16,18,20,22,-1,-1,24,-1,-1,-1,26,-1,-1,28,30,32,-1,-1,-1,-1,-1,-1,-1,-1],"split_conditions":[1.5E1,1.4E1,1E0,6.218633E-2,6.4E1,4.8E1,1.9104058E-2,2.05E1,1.2E1,1.75E1,3.3E1,2.1E1,4.8E-1,5.0003E-2,1.1646041E-2,1.09E1,-5.1189037E-3,-2.2159358E-2,1.9222273E-2,1.6E1,-2.7918948E-2,6.5177195E-2,1E0,3.2E1,1.24E1,8.475527E-3,-1.4213445E-2,3.266748E-2,-1.5772989E-2,-3.1471163E-2,6.2955967E-3,-4.6550434E-2,-2.8383443E-2],"split_indices":[16,12,5,0,9,9,0,14,15,10,13,10,17,0,0,10,0,0,0,14,0,0,1,13,10,0,0,0,0,0,0,0,0],"split_type":[0,0,0,0,0,0,0,0,0,0,0,0,0,0,0,0,0,0,0,0,0,0,0,0,0,0,0,0,0,0,0,0,0],"sum_hessian":[2.5519223E2,1.3250545E2,1.2268678E2,1.0577901E1,1.2192754E2,1.1068624E2,1.2000536E1,9.710999E1,2.481755E1,8.3968544E1,2.67177E1,5.7487682E1,3.9622314E1,1.4477089E1,1.0340462E1,7.3853455E1,1.0115091E1,1.3297071E1,1.3420628E1,4.726825E1,1.0219433E1,1.0278277E1,2.9344036E1,3.189872E1,4.1954735E1,2.459199E1,2.267626E1,1.2896438E1,1.64476E1,2.0480165E1,1.1418555E1,1.3036813E1,2.8917921E1],"tree_param":{"num_deleted":"0","num_feature":"19","num_nodes":"33","size_leaf_vector":"1"}},{"base_weights":[4.302034E-3,2.791654E-1,-3.5366607E-1,4.296755E-2,6.6704315E-1,-4.7926196E-1,1.9662706E-2,-1.9948142E-2,1.5846053E-1,6.691684E-2,3.5940665E-1,-5.7440704E-1,2.10392E-3,3.6743686E-2,4.20672E-2,-1.2387637E-2,6.328259E-1,-4.2975664E-2,-4.7195345E-1,-9.579581E-2,2.6225153E-2,4.9480014E-2,7.284341E-3,3.640428E-3,-5.9907764E-1,1.7087694E-2,-1.6177583E-2,-9.136404E-3,-3.900859E-2],"categories":[],"categories_nodes":[],"categories_segments":[],"categories_sizes":[],"default_left":[0,0,0,0,0,0,0,0,0,0,0,0,0,0,0,0,0,0,0,0,0,0,0,0,0,0,0,0,0],"id":9,"left_children":[1,3,5,7,9,11,-1,-1,13,-1,15,17,-1,-1,19,-1,21,-1,23,25,-1,-1,-1,-1,27,-1,-1,-1,-1],"loss_changes":[2.6192356E1,1.3766135E1,1.1035523E1,4.894293E0,1.1273609E1,4.9564037E0,0E0,0E0,5.051704E0,0E0,6.86338E0,2.0525703E0,0E0,0E0,4.3129234E0,0E0,4.7459106E0,0E0,4.484561E0,5.162258E0,0E0,0E0,0E0,0E0,3.785862E0,0E0,0E0,0E0,0E0],"parents":[2147483647,0,0,1,1,2,2,3,3,4,4,5,5,8,8,10,10,11,11,14,14,16,16,18,18,19,19,24,24],"right_children":[2,4,6,8,10,12,-1,-1,14,-1,16,18,-1,-1,20,-1,22,-1,24,26,-1,-1,-1,-1,28,-1,-1,-1,-1],"split_conditions":[1.48E1,8.3E1,1.47E2,3.1E1,3.8E-1,4.4E1,1.9662706E-2,-1.9948142E-2,1.06E2,6.691684E-2,3.8E1,2.05E1,2.10392E-3,3.6743686E-2,2.27E1,-1.2387637E-2,3E0,-4.2975664E-2,2.32E1,7.5E0,2.6225153E-2,4.9480014E-2,7.284341E-3,3.640428E-3,1.01E1,1.7087694E-2,-1.6177583E-2,-9.136404E-3,-3.900859E-2],"split_indices":[15,0,7,13,17,13,0,0,7,0,9,14,0,0,14,0,2,0,14,15,0,0,0,0,10,0,0,0,0],"split_type":[0,0,0,0,0,0,0,0,0,0,0,0,0,0,0,0,0,0,0,0,0,0,0,0,0,0,0,0,0],"sum_hessian":[2.6419983E2,1.4957208E2,1.14627754E2,9.365296E1,5.5919113E1,9.843422E1,1.6193533E1,1.8895494E1,7.475747E1,1.652014E1,3.939897E1,8.315633E1,1.5277893E1,1.1666735E1,6.3090736E1,1.2262509E1,2.7136463E1,2.0029438E1,6.312689E1,4.969197E1,1.3398766E1,1.506881E1,1.2067652E1,1.2024759E1,5.1102127E1,1.683984E1,3.285213E1,1.6098787E1,3.500334E1],"tree_param":{"num_deleted":"0","num_feature":"19","num_nodes":"29","size_leaf_vector":"1"}},{"base_weights":[1.4257388E-2,-1.00220196E-1,9.599907E-1,2.3467828E-1,-3.8293946E-1,1.1272325E-2,9.114423E-2,5.7625085E-1,5.4488312E-2,1.3175038E-2,-4.4134018E-1,1.9898567E-1,5.724452E-2,-8.672437E-2,3.8114216E-2,-3.6905017E-1,-3.9550688E-2,-1.1109844E-2,3.2576036E-2,-2.7862862E-1,2.789638E-2,-5.3625005E-1,-2.4530664E-1,-4.358535E-3,-3.5956893E-2,-3.4143806E-2,-9.613841E-3,-1.9161528E-2,7.934024E-3],"categories":[],"categories_nodes":[],"categories_segments":[],"categories_sizes":[],"default_left":[0,0,0,0,0,0,0,0,0,0,0,0,0,0,0,0,0,0,0,0,0,0,0,0,0,0,0,0,0],"id":10,"left_children":[1,3,5,7,9,-1,-1,11,13,-1,15,17,-1,19,-1,21,-1,-1,-1,23,-1,25,27,-1,-1,-1,-1,-1,-1],"loss_changes":[2.809956E1,2.2021297E1,1.7351032E1,6.5327697E0,4.872381E0,0E0,0E0,7.651246E0,7.1549315E0,0E0,2.6381912E0,4.5837255E0,0E0,7.5812564E0,0E0,1.8946619E0,0E0,0E0,0E0,3.8947048E0,0E0,1.9269285E0,3.2993946E0,0E0,0E0,0E0,0E0,0E0,0E0],"parents":[2147483647,0,0,1,1,2,2,3,3,4,4,7,7,8,8,10,10,11,11,13,13,15,15,19,19,21,21,22,22],"right_children":[2,4,6,8,10,-1,-1,12,14,-1,16,18,-1,20,-1,22,-1,-1,-1,24,-1,26,28,-1,-1,-1,-1,-1,-1],"split_conditions":[1E0,1.32E1,8.3E1,8E0,3.8E-1,1.1272325E-2,9.114423E-2,1E0,2.52E1,1.3175038E-2,9.5E-1,1.71E1,5.724452E-2,8.6E1,3.8114216E-2,3.7E1,-3.9550688E-2,-1.1109844E-2,3.2576036E-2,2.14E1,2.789638E-2,1E0,3E0,-4.358535E-3,-3.5956893E-2,-3.4143806E-2,-9.613841E-3,-1.9161528E-2,7.934024E-3],"split_indices":[3,15,0,16,18,0,0,1,14,0,18,10,0,0,0,9,0,0,0,14,0,4,2,0,0,0,0,0,0],"split_type":[0,0,0,0,0,0,0,0,0,0,0,0,0,0,0,0,0,0,0,0,0,0,0,0,0,0,0,0,0],"sum_hessian":[2.57655E2,2.3063187E2,2.7023123E1,1.056513E2,1.24980576E2,1.5278481E1,1.1744642E1,3.5727448E1,6.992385E1,1.0064473E1,1.149161E2,2.2289417E1,1.343803E1,5.902518E1,1.0898666E1,9.6932175E1,1.7983929E1,1.1808256E1,1.0481162E1,4.5922466E1,1.3102717E1,3.980919E1,5.7122986E1,3.2844982E1,1.3077483E1,2.7220573E1,1.2588614E1,4.2622692E1,1.4500295E1],"tree_param":{"num_deleted":"0","num_feature":"19","num_nodes":"29","size_leaf_vector":"1"}},{"base_weights":[-6.669989E-2,2.443261E-1,-3.8036683E-1,7.765428E-2,7.469804E-1,-4.648443E-1,1.9649243E-2,-1.8636763E-1,4.2099813E-1,5.9774436E-2,6.048594E-3,-5.287275E-1,8.847241E-3,-4.48817E-1,9.8183304E-2,6.040322E-1,4.813132E-3,-2.0297128E-1,-6.383575E-1,-2.2647548E-3,-3.381914E-2,2.7799347E-2,-1.2774584E-2,5.8221757E-2,6.956972E-3,-3.6723197E-2,7.577994E-3,-1.1711111E-2,-7.0029E-1,-4.2870473E-2,-3.0751338E-2],"categories":[],"categories_nodes":[],"categories_segments":[],"categories_sizes":[],"default_left":[0,0,0,0,0,0,0,0,0,0,0,0,0,0,0,0,0,0,0,0,0,0,0,0,0,0,0,0,0,0,0],"id":11,"left_children":[1,3,5,7,9,11,-1,13,15,-1,-1,17,-1,19,21,23,-1,25,27,-1,-1,-1,-1,-1,-1,-1,-1,-1,29,-1,-1],"loss_changes":[2.4590595E1,1.0556145E1,8.376064E0,8.804535E0,8.680664E0,4.7478848E0,0E0,4.159649E0,2.447237E0,0E0,0E0,3.5665264E0,0E0,2.6183696E0,4.556119E0,6.8116894E0,0E0,5.2981105E0,1.7624416E0,0E0,0E0,0E0,0E0,0E0,0E0,0E0,0E0,0E0,3.6003876E-1,0E0,0E0],"parents":[2147483647,0,0,1,1,2,2,3,3,4,4,5,5,7,7,8,8,11,11,13,13,14,14,15,15,17,17,18,18,28,28],"right_children":[2,4,6,8,10,12,-1,14,16,-1,-1,18,-1,20,22,24,-1,26,28,-1,-1,-1,-1,-1,-1,-1,-1,-1,30,-1,-1],"split_conditions":[5.7E-1,5.7E1,1E0,1E0,1E0,1.82E1,1.9649243E-2,4.5E-1,4.6E1,5.9774436E-2,6.048594E-3,5.4E1,8.847241E-3,3.3E-1,1.4E1,1.81E1,4.813132E-3,4.1E1,9.1E0,-2.2647548E-3,-3.381914E-2,2.7799347E-2,-1.2774584E-2,5.8221757E-2,6.956972E-3,-3.6723197E-2,7.577994E-3,-1.1711111E-2,6.7E-1,-4.2870473E-2,-3.0751338E-2],"split_indices":[17,13,3,1,1,10,0,18,13,0,0,8,0,17,16,14,0,8,10,0,0,0,0,0,0,0,0,0,17,0,0],"split_type":[0,0,0,0,0,0,0,0,0,0,0,0,0,0,0,0,0,0,0,0,0,0,0,0,0,0,0,0,0,0,0],"sum_hessian":[2.5010721E2,1.2569328E2,1.2441393E2,9.526086E1,3.0432428E1,1.12521515E2,1.1892419E1,5.4109413E1,4.115144E1,1.7199804E1,1.3232624E1,1.0249537E2,1.002614E1,2.784755E1,2.6261864E1,2.5767666E1,1.5383776E1,2.6526276E1,7.596909E1,1.0473996E1,1.7373552E1,1.1196663E1,1.5065202E1,1.1001371E1,1.4766294E1,1.0185346E1,1.634093E1,1.0730433E1,6.523866E1,1.9763428E1,4.5475235E1],"tree_param":{"num_deleted":"0","num_feature":"19","num_nodes":"31","size_leaf_vector":"1"}},{"base_weights":[2.0434352E-2,2.619102E-1,-2.3821326E-1,2.3040807E-2,5.303643E-1,8.418012E-2,-4.3821383E-1,-1.4140604E-1,2.7211133E-2,3.428783E-1,6.3555025E-2,-1.8315266E-1,4.7059223E-2,-5.506029E-1,1.2208002E-2,2.0393798E-2,-3.0628383E-1,4.112127E-2,1.2544681E-1,1.23562664E-1,-2.866931E-2,-8.899267E-3,-6.2544537E-1,-4.7413543E-1,2.470586E-3,-1.5385129E-1,3.5164062E-2,-5.429624E-3,1.7288463E-2,-4.128761E-2,-3.803092E-1,-1.1889699E-2,-3.5512205E-2,1.0116821E-2,-2.1813681E-2,-3.6035504E-2,1.8176538E-3],"categories":[],"categories_nodes":[],"categories_segments":[],"categories_sizes":[],"default_left":[0,0,0,0,0,0,0,0,0,0,0,0,0,0,0,0,0,0,0,0,0,0,0,0,0,0,0,0,0,0,0,0,0,0,0,0,0],"id":12,"left_children":[1,3,5,7,9,11,13,15,-1,17,-1,19,-1,21,-1,-1,23,-1,25,27,-1,-1,29,31,-1,33,-1,-1,-1,-1,35,-1,-1,-1,-1,-1,-1],"loss_changes":[1.5570081E1,8.252626E0,7.800643E0,6.011818E0,7.9856167E0,1.0925999E1,5.845666E0,4.963904E0,0E0,5.0852976E0,0E0,4.453232E0,0E0,1.6803608E0,0E0,0E0,2.5111058E0,0E0,5.824098E0,1.1375588E0,0E0,0E0,2.293438E0,1.4160385E0,0E0,2.5726664E0,0E0,0E0,0E0,0E0,3.6759777E0,0E0,0E0,0E0,0E0,0E0,0E0],"parents":[2147483647,0,0,1,1,2,2,3,3,4,4,5,5,6,6,7,7,9,9,11,11,13,13,16,16,18,18,19,19,22,22,23,23,25,25,30,30],"right_children":[2,4,6,8,10,12,14,16,-1,18,-1,20,-1,22,-1,-1,24,-1,26,28,-1,-1,30,32,-1,34,-1,-1,-1,-1,36,-1,-1,-1,-1,-1,-1],"split_conditions":[5.7E-1,5.1E1,1.46E1,2.2E1,8.8E1,1.59E1,1.46E2,4.1E1,2.7211133E-2,1.28E2,6.3555025E-2,1.41E2,4.7059223E-2,2.2E1,1.2208002E-2,2.0393798E-2,1.5E1,4.112127E-2,2E1,2.17E1,-2.866931E-2,-8.899267E-3,6.3E1,8.1E0,2.470586E-3,8E1,3.5164062E-2,-5.429624E-3,1.7288463E-2,-4.128761E-2,7.2E-1,-1.1889699E-2,-3.5512205E-2,1.0116821E-2,-2.1813681E-2,-3.6035504E-2,1.8176538E-3],"split_indices":[17,9,15,12,0,10,7,8,0,7,0,7,0,9,0,0,10,0,12,14,0,0,8,10,0,0,0,0,0,0,17,0,0,0,0,0,0],"split_type":[0,0,0,0,0,0,0,0,0,0,0,0,0,0,0,0,0,0,0,0,0,0,0,0,0,0,0,0,0,0,0,0,0,0,0,0,0],"sum_hessian":[2.4729327E2,1.2788552E2,1.1940775E2,6.824617E1,5.9639355E1,4.5937435E1,7.3470314E1,5.243135E1,1.58148155E1,4.876057E1,1.0878782E1,3.5614258E1,1.0323176E1,6.3246525E1,1.0223791E1,1.1764547E1,4.0666805E1,1.4343468E1,3.4417103E1,2.0323656E1,1.5290604E1,1.1143683E1,5.210284E1,2.7402615E1,1.3264189E1,2.3696884E1,1.072022E1,1.0189381E1,1.0134275E1,2.7369776E1,2.4733063E1,1.4697631E1,1.2704985E1,1.0605245E1,1.30916395E1,1.3210637E1,1.1522426E1],"tree_param":{"num_deleted":"0","num_feature":"19","num_nodes":"37","size_leaf_vector":"1"}},{"base_weights":[3.2997145E-3,-9.9552944E-2,9.002386E-1,1.6007774E-1,-3.961782E-1,6.706043E-2,1.08029265E-2,3.6151927E-2,8.407785E-2,-4.8759565E-1,1.0018132E-2,3.8401502E-1,-1.2096691E-1,-3.8922936E-1,-4.4409197E-2,-6.1167356E-2,7.910443E-1,-2.6274285E-1,2.4545414E-2,-6.020099E-1,-2.2768661E-1,1.7543992E-2,-2.402017E-2,6.814956E-2,5.260819E-3,3.4411864E-3,-2.1929879E-2,-1.67082E-2,-3.7609275E-2,3.003239E-3,-2.3620663E-2],"categories":[],"categories_nodes":[],"categories_segments":[],"categories_sizes":[],"default_left":[0,0,0,0,0,0,0,0,0,0,0,0,0,0,0,0,0,0,0,0,0,0,0,0,0,0,0,0,0,0,0],"id":13,"left_children":[1,3,5,7,9,-1,-1,-1,11,13,-1,15,17,19,-1,21,23,25,-1,27,29,-1,-1,-1,-1,-1,-1,-1,-1,-1,-1],"loss_changes":[2.3568216E1,1.7716503E1,7.6393948E0,5.199432E0,5.947939E0,0E0,0E0,0E0,6.777916E0,3.3312168E0,0E0,8.144962E0,5.8345766E0,2.4992323E0,0E0,4.015473E0,9.040606E0,3.1816936E0,0E0,1.0555563E0,3.2117798E0,0E0,0E0,0E0,0E0,0E0,0E0,0E0,0E0,0E0,0E0],"parents":[2147483647,0,0,1,1,2,2,3,3,4,4,8,8,9,9,11,11,12,12,13,13,15,15,16,16,17,17,19,19,20,20],"right_children":[2,4,6,8,10,-1,-1,-1,12,14,-1,16,18,20,-1,22,24,26,-1,28,30,-1,-1,-1,-1,-1,-1,-1,-1,-1,-1],"split_conditions":[1E0,1.4E1,1.51E1,9.9E1,1.47E2,6.706043E-2,1.08029265E-2,3.6151927E-2,4.7E1,9.1E-1,1.0018132E-2,1.43E1,4.9E1,2.2E1,-4.4409197E-2,3E-1,1.2E1,3.3E1,2.4545414E-2,8.1E1,4.2E1,1.7543992E-2,-2.402017E-2,6.814956E-2,5.260819E-3,3.4411864E-3,-2.1929879E-2,-1.67082E-2,-3.7609275E-2,3.003239E-3,-2.3620663E-2],"split_indices":[3,15,15,7,7,0,0,0,8,18,0,14,11,14,0,17,16,11,0,0,11,0,0,0,0,0,0,0,0,0,0],"split_type":[0,0,0,0,0,0,0,0,0,0,0,0,0,0,0,0,0,0,0,0,0,0,0,0,0,0,0,0,0,0,0],"sum_hessian":[2.535035E2,2.282221E2,2.5281393E1,1.2194564E2,1.0627646E2,1.4789135E1,1.0492258E1,1.3491937E1,1.08453705E2,9.231256E1,1.3963899E1,4.368254E1,6.4771164E1,7.569656E1,1.6616E1,2.1269287E1,2.2413254E1,5.3049747E1,1.1721418E1,3.1490866E1,4.42057E1,1.0808842E1,1.0460446E1,1.1682912E1,1.0730342E1,1.8596144E1,3.4453606E1,1.24718485E1,1.9019018E1,2.0663713E1,2.3541985E1],"tree_param":{"num_deleted":"0","num_feature":"19","num_nodes":"31","size_leaf_vector":"1"}},{"base_weights":[-2.931479E-2,2.1119237E-1,-3.645538E-1,5.4721043E-2,4.8608717E-1,1.25999125E-2,-4.4495556E-1,-4.738306E-2,2.4416542E-2,7.509907E-1,-2.2020131E-2,-1.8804957E-1,-5.618993E-1,-1.680269E-1,2.1017034E-2,6.0811546E-2,3.6379293E-1,-2.457204E-2,1.0216275E-2,-8.18782E-1,-3.5885552E-1,8.367798E-2,-3.364333E-1,-1.9223687E-3,3.9858002E-2,-4.7106013E-2,-2.8415984E-2,7.081467E-3,-3.810376E-2,-1.4759982E-2,2.1002358E-2,-2.7889372E-3,-2.9638618E-2],"categories":[],"categories_nodes":[],"categories_segments":[],"categories_sizes":[],"default_left":[0,0,0,0,0,0,0,0,0,0,0,0,0,0,0,0,0,0,0,0,0,0,0,0,0,0,0,0,0,0,0,0,0],"id":14,"left_children":[1,3,5,7,9,-1,11,13,-1,15,-1,17,19,21,-1,-1,23,-1,-1,25,27,29,31,-1,-1,-1,-1,-1,-1,-1,-1,-1,-1],"loss_changes":[2.0289888E1,6.279351E0,5.321638E0,4.2093277E0,1.335128E1,0E0,2.698244E0,4.440609E0,0E0,7.055973E0,0E0,3.7546778E0,3.0250835E0,2.668047E0,0E0,0E0,4.2395515E0,0E0,0E0,3.0825615E-1,7.6393504E0,3.4076579E0,2.665687E0,0E0,0E0,0E0,0E0,0E0,0E0,0E0,0E0,0E0,0E0],"parents":[2147483647,0,0,1,1,2,2,3,3,4,4,6,6,7,7,9,9,11,11,12,12,13,13,16,16,19,19,20,20,21,21,22,22],"right_children":[2,4,6,8,10,-1,12,14,-1,16,-1,18,20,22,-1,-1,24,-1,-1,26,28,30,32,-1,-1,-1,-1,-1,-1,-1,-1,-1,-1],"split_conditions":[1.6E1,1E0,4.9E-1,2.42E1,5.8E-1,1.25999125E-2,5.7E1,8.6E1,2.4416542E-2,3.3E1,-2.2020131E-2,2.47E1,6.3E1,1.61E1,2.1017034E-2,6.0811546E-2,3.9E1,-2.457204E-2,1.0216275E-2,2.4E1,2.3E1,1.6E1,4.6E1,-1.9223687E-3,3.9858002E-2,-4.7106013E-2,-2.8415984E-2,7.081467E-3,-3.810376E-2,-1.4759982E-2,2.1002358E-2,-2.7889372E-3,-2.9638618E-2],"split_indices":[16,6,18,14,18,0,8,0,0,11,0,14,8,14,0,0,11,0,0,12,12,12,9,0,0,0,0,0,0,0,0,0,0],"split_type":[0,0,0,0,0,0,0,0,0,0,0,0,0,0,0,0,0,0,0,0,0,0,0,0,0,0,0,0,0,0,0,0,0],"sum_hessian":[2.4969519E2,1.4560516E2,1.0409003E2,9.355328E1,5.205188E1,1.1761789E1,9.232823E1,7.6443504E1,1.7109783E1,4.0625572E1,1.1426307E1,2.9696964E1,6.263127E1,6.1278255E1,1.5165249E1,1.7480564E1,2.3145008E1,1.660512E1,1.30918455E1,2.6311062E1,3.632021E1,2.476577E1,3.6512486E1,1.2476199E1,1.0668808E1,1.577919E1,1.0531873E1,1.6495008E1,1.98252E1,1.1704507E1,1.3061264E1,1.8010818E1,1.8501667E1],"tree_param":{"num_deleted":"0","num_feature":"19","num_nodes":"33","size_leaf_vector":"1"}},{"base_weights":[-8.775342E-3,2.2966218E-1,-2.9676706E-1,1.23095945E-1,5.1135994E-2,-4.027834E-1,5.6628637E-2,4.4436153E-2,4.3058384E-2,-2.943371E-1,-3.9451618E-2,-1.560542E-2,3.1680647E-2,-4.6810675E-2,2.4978159E-2,-3.82775E-1,6.751974E-4,-3.8331044E-1,6.6754475E-2,3.518474E-3,-5.119858E-1,-3.7819568E-2,-4.0637344E-4,2.033911E-2,-7.549954E-3,-1.1342314E-2,-3.0716792E-2],"categories":[],"categories_nodes":[],"categories_segments":[],"categories_sizes":[],"default_left":[0,0,0,0,0,0,0,0,0,0,0,0,0,0,0,0,0,0,0,0,0,0,0,0,0,0,0],"id":15,"left_children":[1,3,5,7,-1,9,11,-1,13,15,-1,-1,-1,17,-1,19,-1,21,23,-1,25,-1,-1,-1,-1,-1,-1],"loss_changes":[1.7409624E1,1.1597792E1,4.3246384E0,7.5250697E0,0E0,3.4725685E0,6.021577E0,0E0,4.65084E0,1.9286814E0,0E0,0E0,0E0,3.6619337E0,0E0,3.2516155E0,0E0,3.3754814E0,5.392226E0,0E0,1.1113176E0,0E0,0E0,0E0,0E0,0E0,0E0],"parents":[2147483647,0,0,1,1,2,2,3,3,5,5,6,6,8,8,9,9,13,13,15,15,17,17,18,18,20,20],"right_children":[2,4,6,8,-1,10,12,-1,14,16,-1,-1,-1,18,-1,20,-1,22,24,-1,26,-1,-1,-1,-1,-1,-1],"split_conditions":[1.5E1,2.4E1,1.47E2,1.4E1,5.1135994E-2,9.1E-1,8.1E1,4.4436153E-2,6E1,1E0,-3.9451618E-2,-1.560542E-2,3.1680647E-2,3.1E-1,2.4978159E-2,1.04E1,6.751974E-4,1.19E2,3.3E1,3.518474E-3,3.2E1,-3.7819568E-2,-4.0637344E-4,2.033911E-2,-7.549954E-3,-1.1342314E-2,-3.0716792E-2],"split_indices":[16,12,7,12,0,18,0,0,13,4,0,0,0,18,0,10,0,7,11,0,13,0,0,0,0,0,0],"split_type":[0,0,0,0,0,0,0,0,0,0,0,0,0,0,0,0,0,0,0,0,0,0,0,0,0,0,0],"sum_hessian":[2.5154065E2,1.3772021E2,1.1382042E2,1.2242475E2,1.5295471E1,8.744712E1,2.6373304E1,1.0630566E1,1.1179418E2,6.965287E1,1.779425E1,1.6370422E1,1.0002881E1,9.4155815E1,1.763837E1,5.391928E1,1.5733586E1,2.3159046E1,7.0996765E1,1.20644455E1,4.1854836E1,1.1102595E1,1.2056451E1,2.7377703E1,4.3619064E1,1.1904942E1,2.9949894E1],"tree_param":{"num_deleted":"0","num_feature":"19","num_nodes":"27","size_leaf_vector":"1"}},{"base_weights":[-2.9549692E-3,1.3674709E-1,-4.399147E-1,4.261813E-2,8.850755E-1,-5.994892E-1,2.8325778E-3,3.3686316E-1,-1.3768974E-1,1.4392905E-2,7.15427E-2,-7.7570564E-1,-3.558977E-1,1.4554316E-1,4.437625E-2,-4.5550156E-1,7.596468E-2,-2.8775526E-2,-4.637695E-2,-3.2909255E-2,-2.552578E-4,-8.61372E-2,3.3689592E-2,-2.7558246E-1,-3.759855E-2,3.2909315E-2,-7.769702E-2,-1.913598E-2,2.4050606E-2,-3.4380686E-3,-2.6631966E-2,-1.1001057E-2,1.8669449E-2],"categories":[],"categories_nodes":[],"categories_segments":[],"categories_sizes":[],"default_left":[0,0,0,0,0,0,0,0,0,0,0,0,0,0,0,0,0,0,0,0,0,0,0,0,0,0,0,0,0,0,0,0,0],"id":16,"left_children":[1,3,5,7,9,11,-1,13,15,-1,-1,17,19,21,-1,23,25,-1,-1,-1,-1,27,-1,29,-1,-1,31,-1,-1,-1,-1,-1,-1],"loss_changes":[1.5691598E1,1.368356E1,4.96836E0,9.282217E0,6.6658287E0,1.7505684E0,0E0,6.869708E0,7.4120398E0,0E0,0E0,2.7314663E-1,2.294102E0,6.238392E0,0E0,2.130187E0,5.9404373E0,0E0,0E0,0E0,0E0,6.237879E0,0E0,1.497139E0,0E0,0E0,3.4832711E0,0E0,0E0,0E0,0E0,0E0,0E0],"parents":[2147483647,0,0,1,1,2,2,3,3,4,4,5,5,7,7,8,8,11,11,12,12,13,13,15,15,16,16,21,21,23,23,26,26],"right_children":[2,4,6,8,10,12,-1,14,16,-1,-1,18,20,22,-1,24,26,-1,-1,-1,-1,28,-1,30,-1,-1,32,-1,-1,-1,-1,-1,-1],"split_conditions":[1.66E1,1E0,3E0,3.4E1,1.9E1,1.11E2,2.8325778E-3,3.1E1,3.9E1,1.4392905E-2,7.15427E-2,2.4E1,1.84E1,2.04E1,4.437625E-2,2.2E1,1.88E1,-2.8775526E-2,-4.637695E-2,-3.2909255E-2,-2.552578E-4,5.7E1,3.3689592E-2,1.48E2,-3.759855E-2,3.2909315E-2,2.61E1,-1.913598E-2,2.4050606E-2,-3.4380686E-3,-2.6631966E-2,-1.1001057E-2,1.8669449E-2],"split_indices":[15,3,2,11,12,7,0,11,11,0,0,12,15,14,0,12,14,0,0,0,0,9,0,7,0,0,14,0,0,0,0,0,0],"split_type":[0,0,0,0,0,0,0,0,0,0,0,0,0,0,0,0,0,0,0,0,0,0,0,0,0,0,0,0,0,0,0,0,0],"sum_hessian":[2.5506767E2,1.937956E2,6.127208E1,1.7308139E2,2.0714203E1,4.621375E1,1.505833E1,6.5432915E1,1.07648476E2,1.0620339E1,1.00938635E1,2.5547787E1,2.0665962E1,4.949934E1,1.5933573E1,4.282064E1,6.4827835E1,1.3085164E1,1.2462623E1,1.0629745E1,1.0036219E1,3.4990204E1,1.4509136E1,2.784925E1,1.4971389E1,1.2851263E1,5.197657E1,2.318903E1,1.1801175E1,1.6134974E1,1.1714276E1,3.9899837E1,1.2076732E1],"tree_param":{"num_deleted":"0","num_feature":"19","num_nodes":"33","size_leaf_vector":"1"}},{"base_weights":[2.7963728E-2,1.6532966E-1,-4.2587882E-1,7.2094046E-2,8.3972806E-1,-6.2980425E-1,1.2729771E-2,4.860626E-2,4.896446E-3,1.1235953E-2,6.6244714E-2,-4.2924818E-2,-3.0276108E-1,4.1977968E-2,-2.478783E-2,-3.6500107E-2,6.810152E-3,1.7691113E-1,-8.562346E-2,1.9801783E-3,4.7086544E-2,-2.7485428E-2,9.980417E-4],"categories":[],"categories_nodes":[],"categories_segments":[],"categories_sizes":[],"default_left":[0,0,0,0,0,0,0,0,0,0,0,0,0,0,0,0,0,0,0,0,0,0,0],"id":17,"left_children":[1,3,5,7,9,11,-1,-1,13,-1,-1,-1,15,17,-1,-1,-1,19,21,-1,-1,-1,-1],"loss_changes":[1.6764439E1,1.2910028E1,8.832879E0,1.1021997E1,7.150097E0,3.3581295E0,0E0,0E0,3.1890981E0,0E0,0E0,0E0,4.122535E0,2.7667518E0,0E0,0E0,0E0,8.154025E0,4.068759E0,0E0,0E0,0E0,0E0],"parents":[2147483647,0,0,1,1,2,2,3,3,4,4,5,5,8,8,12,12,13,13,17,17,18,18],"right_children":[2,4,6,8,10,12,-1,-1,14,-1,-1,-1,16,18,-1,-1,-1,20,22,-1,-1,-1,-1],"split_conditions":[1.67E1,1E0,3E0,1.4E1,8.2E1,1.11E2,1.2729771E-2,4.860626E-2,9.3E-1,1.1235953E-2,6.6244714E-2,-4.2924818E-2,1.84E1,1E0,-2.478783E-2,-3.6500107E-2,6.810152E-3,5.7E1,2.6E1,1.9801783E-3,4.7086544E-2,-2.7485428E-2,9.980417E-4],"split_indices":[15,3,2,12,0,7,0,0,17,0,0,0,15,4,0,0,0,13,11,0,0,0,0],"split_type":[0,0,0,0,0,0,0,0,0,0,0,0,0,0,0,0,0,0,0,0,0,0,0],"sum_hessian":[2.667792E2,2.0528168E2,6.149753E1,1.8132094E2,2.3960733E1,4.7374687E1,1.4122846E1,1.1661568E1,1.6965938E2,1.121169E1,1.27490425E1,2.6923096E1,2.0451591E1,1.5881285E2,1.0846527E1,1.0028197E1,1.0423394E1,7.700104E1,8.1811806E1,6.617285E1,1.0828186E1,1.4383637E1,6.742817E1],"tree_param":{"num_deleted":"0","num_feature":"19","num_nodes":"23","size_leaf_vector":"1"}},{"base_weights":[2.6740177E-2,1.5279545E-1,-4.1992664E-1,8.758448E-2,5.4977894E-2,-6.142477E-1,1.131364E-2,2.077593E-2,3.4253474E-2,-3.9168794E-2,-4.099928E-1,1.0047439E-1,-5.383996E-1,-3.2280765E-2,-7.4854656E-3,2.4865182E-1,-1.8831253E-1,-3.661166E-2,-1.5194348E-2,7.1471855E-3,4.8038036E-2,-2.2201216E-2,1.8548062E-2],"categories":[],"categories_nodes":[],"categories_segments":[],"categories_sizes":[],"default_left":[0,0,0,0,0,0,0,0,0,0,0,0,0,0,0,0,0,0,0,0,0,0,0],"id":18,"left_children":[1,3,5,7,-1,9,-1,11,-1,-1,13,15,17,-1,-1,19,21,-1,-1,-1,-1,-1,-1],"loss_changes":[1.4502799E1,1.2296574E1,7.259856E0,7.525346E0,0E0,1.1942196E0,0E0,7.6710505E0,0E0,0E0,1.2506211E0,6.4842987E0,7.5383234E-1,0E0,0E0,7.3792505E0,7.5418E0,0E0,0E0,0E0,0E0,0E0,0E0],"parents":[2147483647,0,0,1,1,2,2,3,3,5,5,7,7,10,10,11,11,12,12,15,15,16,16],"right_children":[2,4,6,8,-1,10,-1,12,-1,-1,14,16,18,-1,-1,20,22,-1,-1,-1,-1,-1,-1],"split_conditions":[1.67E1,9E1,3E0,7E1,5.4977894E-2,1.2E1,1.131364E-2,2.06E2,3.4253474E-2,-3.9168794E-2,2.3E1,1.7E1,8.4E0,-3.2280765E-2,-7.4854656E-3,1E0,4.7E1,-3.661166E-2,-1.5194348E-2,7.1471855E-3,4.8038036E-2,-2.2201216E-2,1.8548062E-2],"split_indices":[15,0,2,9,0,10,0,7,0,0,16,16,15,0,0,3,9,0,0,0,0,0,0],"split_type":[0,0,0,0,0,0,0,0,0,0,0,0,0,0,0,0,0,0,0,0,0,0,0],"sum_hessian":[2.5543747E2,1.9972919E2,5.570829E1,1.8788086E2,1.1848322E1,4.286703E1,1.2841259E1,1.6991623E2,1.7964628E1,2.1898901E1,2.096813E1,1.4943745E2,2.047878E1,1.0228404E1,1.0739727E1,9.8854095E1,5.058335E1,1.0049843E1,1.0428938E1,8.71221E1,1.17319975E1,3.4853615E1,1.5729739E1],"tree_param":{"num_deleted":"0","num_feature":"19","num_nodes":"23","size_leaf_vector":"1"}},{"base_weights":[-2.5992086E-2,1.4164037E-1,-3.6242846E-1,7.138005E-2,4.5471948E-2,-5.043756E-1,2.2564648E-2,1.0146847E-2,3.0030403E-2,-1.533389E-1,-6.486946E-1,-5.814077E-2,2.356372E-2,-2.098137E-2,7.0883255E-3,-7.435991E-1,-1.6194347E-2,-1.8329054E-1,3.2427195E-1,-2.6811961E-2,-4.520269E-2,4.616143E-3,-2.2750115E-2,4.090598E-2,-3.342088E-3],"categories":[],"categories_nodes":[],"categories_segments":[],"categories_sizes":[],"default_left":[0,0,0,0,0,0,0,0,0,0,0,0,0,0,0,0,0,0,0,0,0,0,0,0,0],"id":19,"left_children":[1,3,5,7,-1,9,-1,11,-1,13,15,17,-1,-1,-1,19,-1,21,23,-1,-1,-1,-1,-1,-1],"loss_changes":[1.4312842E1,9.078765E0,9.973557E0,5.06137E0,0E0,3.5641556E0,0E0,4.4728513E0,0E0,1.8180578E0,1.3293495E0,5.98695E0,0E0,0E0,0E0,8.011036E-1,0E0,7.0779934E0,6.0230045E0,0E0,0E0,0E0,0E0,0E0,0E0],"parents":[2147483647,0,0,1,1,2,2,3,3,5,5,7,7,9,9,10,10,11,11,15,15,17,17,18,18],"right_children":[2,4,6,8,-1,10,-1,12,-1,14,16,18,-1,-1,-1,20,-1,22,24,-1,-1,-1,-1,-1,-1],"split_conditions":[6.9E-1,9E1,1.81E1,4E0,4.5471948E-2,5.3E1,2.2564648E-2,5E1,3.0030403E-2,4.5E1,8.4E1,2.2E1,2.356372E-2,-2.098137E-2,7.0883255E-3,2.51E1,-1.6194347E-2,1.62E1,2.37E1,-2.6811961E-2,-4.520269E-2,4.616143E-3,-2.2750115E-2,4.090598E-2,-3.342088E-3],"split_indices":[18,0,10,2,0,8,0,11,0,8,0,14,0,0,0,14,0,14,14,0,0,0,0,0,0],"split_type":[0,0,0,0,0,0,0,0,0,0,0,0,0,0,0,0,0,0,0,0,0,0,0,0,0],"sum_hessian":[2.5187415E2,1.6849767E2,8.337648E1,1.5537267E2,1.3124996E1,7.1316124E1,1.2060357E1,1.4017339E2,1.519929E1,2.137844E1,4.9937683E1,1.2285404E2,1.7319336E1,1.1016101E1,1.036234E1,3.7648064E1,1.2289619E1,9.295421E1,2.9899834E1,1.8317657E1,1.9330406E1,4.647354E1,4.6480667E1,1.2731889E1,1.7167946E1],"tree_param":{"num_deleted":"0","num_feature":"19","num_nodes":"25","size_leaf_vector":"1"}},{"base_weights":[3.4097787E-2,2.1393682E-1,-2.2583453E-1,1.4368692E-1,4.2546183E-2,-3.6003068E-1,1.7614603E-2,-3.656857E-3,3.335296E-1,-4.421581E-1,1.6632278E-3,1.10093445E-1,-2.2123802E-2,3.7294284E-2,1.10221244E-1,-3.28445E-1,-4.05537E-2,2.8280059E-1,-1.7997593E-2,-2.4039643E-2,3.401881E-1,3.7822363E-3,-4.3212345E-1,1.9847453E-3,4.091155E-2,3.421141E-2,-8.715374E-4,-1.3482292E-2,-3.0387988E-2],"categories":[],"categories_nodes":[],"categories_segments":[],"categories_sizes":[],"default_left":[0,0,0,0,0,0,0,0,0,0,0,0,0,0,0,0,0,0,0,0,0,0,0,0,0,0,0,0,0],"id":20,"left_children":[1,3,5,7,-1,9,-1,11,13,15,-1,17,-1,-1,19,21,-1,23,-1,-1,25,-1,27,-1,-1,-1,-1,-1,-1],"loss_changes":[1.1769232E1,6.5324435E0,8.119526E0,3.781535E0,0E0,2.7314243E0,0E0,3.896169E0,5.356814E0,2.655407E0,0E0,5.1359744E0,0E0,0E0,5.5308046E0,2.3335466E0,0E0,5.9434156E0,0E0,0E0,3.5816793E0,0E0,1.0875931E0,0E0,0E0,0E0,0E0,0E0,0E0],"parents":[2147483647,0,0,1,1,2,2,3,3,5,5,7,7,8,8,9,9,11,11,14,14,15,15,17,17,20,20,22,22],"right_children":[2,4,6,8,-1,10,-1,12,14,16,-1,18,-1,-1,20,22,-1,24,-1,-1,26,-1,28,-1,-1,-1,-1,-1,-1],"split_conditions":[1.43E1,8.9E1,1.46E2,5.1E1,4.2546183E-2,8.7E1,1.7614603E-2,1.88E2,1.31E2,8.5E-1,1.6632278E-3,4.6E1,-2.2123802E-2,3.7294284E-2,1.45E2,2.2E1,-4.05537E-2,4E1,-1.7997593E-2,-2.4039643E-2,8.1E1,3.7822363E-3,4.1E1,1.9847453E-3,4.091155E-2,3.421141E-2,-8.715374E-4,-1.3482292E-2,-3.0387988E-2],"split_indices":[15,0,7,9,0,0,0,7,7,18,0,9,0,0,7,9,0,11,0,0,0,0,11,0,0,0,0,0,0],"split_type":[0,0,0,0,0,0,0,0,0,0,0,0,0,0,0,0,0,0,0,0,0,0,0,0,0,0,0,0,0],"sum_hessian":[2.4973639E2,1.4771439E2,1.02022E2,1.3414574E2,1.3568649E1,8.310802E1,1.8913988E1,7.607889E1,5.8066845E1,6.864865E1,1.4459365E1,6.1012417E1,1.5066468E1,1.9576735E1,3.849011E1,5.3919136E1,1.4729515E1,4.490974E1,1.6102678E1,1.0476032E1,2.8014078E1,1.1064669E1,4.2854465E1,3.162495E1,1.3284789E1,1.3812627E1,1.4201451E1,2.3578098E1,1.927637E1],"tree_param":{"num_deleted":"0","num_feature":"19","num_nodes":"29","size_leaf_vector":"1"}},{"base_weights":[-7.090624E-3,-1.2949236E-1,3.605866E-1,-3.5647532E-1,8.988736E-2,5.812496E-1,1.8875517E-1,-1.005333E-1,-5.892103E-1,-1.7339085E-1,4.1248232E-1,-3.3327737E-3,5.233797E-2,-7.493441E-3,3.4474817E-1,-3.6360878E-1,2.7199168E-2,-9.519986E-3,-6.832434E-1,1.3275689E-2,-3.0251452E-1,4.8755523E-2,1.9303602E-1,3.9121654E-2,1.3369666E-3,-3.1335127E-2,1.0891183E-2,-4.581535E-2,-5.7065606E-1,-3.3670176E-2,-1.0615015E-1,-1.1661842E-2,3.96247E-1,-3.564543E-2,-1.7566165E-2,-2.5585601E-2,1.2209672E-2,3.5057005E-2,-5.39912E-4],"categories":[],"categories_nodes":[],"categories_segments":[],"categories_sizes":[],"default_left":[0,0,0,0,0,0,0,0,0,0,0,0,0,0,0,0,0,0,0,0,0,0,0,0,0,0,0,0,0,0,0,0,0,0,0,0,0,0,0],"id":21,"left_children":[1,3,5,7,9,11,13,15,17,19,21,-1,-1,-1,23,25,-1,-1,27,-1,29,-1,31,-1,-1,-1,-1,-1,33,-1,35,-1,37,-1,-1,-1,-1,-1,-1],"loss_changes":[1.1888349E1,9.898566E0,2.3920956E0,5.753537E0,8.696957E0,8.637002E0,2.0893745E0,8.282385E0,1.7788658E0,3.2893414E0,5.482992E0,0E0,0E0,0E0,3.6971917E0,5.4078016E0,0E0,0E0,5.4782486E-1,0E0,3.1489816E0,0E0,3.0628564E0,0E0,0E0,0E0,0E0,0E0,6.9069767E-1,0E0,4.401626E0,0E0,2.935453E0,0E0,0E0,0E0,0E0,0E0,0E0],"parents":[2147483647,0,0,1,1,2,2,3,3,4,4,5,5,6,6,7,7,8,8,9,9,10,10,14,14,15,15,18,18,20,20,22,22,28,28,30,30,32,32],"right_children":[2,4,6,8,10,12,14,16,18,20,22,-1,-1,-1,24,26,-1,-1,28,-1,30,-1,32,-1,-1,-1,-1,-1,34,-1,36,-1,38,-1,-1,-1,-1,-1,-1],"split_conditions":[5.1E1,4.3E1,1E0,1.9E1,8.3E1,5.8E1,6E0,1.43E1,7.4E1,3.3E1,8E0,-3.3327737E-3,5.233797E-2,-7.493441E-3,3.4E1,2.34E1,2.7199168E-2,-9.519986E-3,2.1E1,1.3275689E-2,1.9E1,4.8755523E-2,3.4E1,3.9121654E-2,1.3369666E-3,-3.1335127E-2,1.0891183E-2,-4.581535E-2,1.29E1,-3.3670176E-2,1.37E2,-1.1661842E-2,4.2E1,-3.564543E-2,-1.7566165E-2,-2.5585601E-2,1.2209672E-2,3.5057005E-2,-5.39912E-4],"split_indices":[13,9,4,16,0,13,16,10,0,11,16,0,0,0,11,14,0,0,12,0,12,0,11,0,0,0,0,0,10,0,7,0,11,0,0,0,0,0,0],"split_type":[0,0,0,0,0,0,0,0,0,0,0,0,0,0,0,0,0,0,0,0,0,0,0,0,0,0,0,0,0,0,0,0,0,0,0,0,0,0,0],"sum_hessian":[2.6212256E2,1.9714104E2,6.498151E1,9.658435E1,1.0055669E2,2.7405354E1,3.7576157E1,4.668078E1,4.9903572E1,5.5623447E1,4.4933243E1,1.1816185E1,1.55891695E1,1.1863204E1,2.5712952E1,3.3459354E1,1.3221424E1,1.0098581E1,3.9804993E1,1.2404159E1,4.3219288E1,1.1641821E1,3.329142E1,1.0205883E1,1.5507069E1,2.2982218E1,1.0477139E1,1.0640267E1,2.9164724E1,1.4120127E1,2.9099161E1,1.0699491E1,2.259193E1,1.6325901E1,1.2838823E1,1.3273268E1,1.5825892E1,1.2503673E1,1.0088258E1],"tree_param":{"num_deleted":"0","num_feature":"19","num_nodes":"39","size_leaf_vector":"1"}},{"base_weights":[6.4841375E-2,-2.9818777E-2,5.789692E-1,-1.0445098E-1,4.9006626E-1,4.374574E-2,1.137695E-2,1.0774757E-1,-3.019049E-1,4.902489E-2,-8.504809E-3,2.1515284E-1,-1.778564E-2,-3.879415E-1,1.132194E-2,3.6260828E-1,-1.1920492E-2,-4.281615E-2,-2.882903E-1,-3.2500073E-3,3.84813E-2,-5.8333124E-3,-2.6776845E-2],"categories":[],"categories_nodes":[],"categories_segments":[],"categories_sizes":[],"default_left":[0,0,0,0,0,0,0,0,0,0,0,0,0,0,0,0,0,0,0,0,0,0,0],"id":22,"left_children":[1,3,5,7,9,-1,-1,11,13,-1,-1,15,-1,17,-1,19,-1,-1,21,-1,-1,-1,-1],"loss_changes":[1.1869101E1,8.067778E0,3.744234E0,7.6372633E0,8.621105E0,0E0,0E0,4.4679785E0,4.3734856E0,0E0,0E0,4.91824E0,0E0,3.5545635E0,0E0,9.608037E0,0E0,0E0,2.8511953E0,0E0,0E0,0E0,0E0],"parents":[2147483647,0,0,1,1,2,2,3,3,4,4,7,7,8,8,11,11,13,13,15,15,18,18],"right_children":[2,4,6,8,10,-1,-1,12,14,-1,-1,16,-1,18,-1,20,-1,-1,22,-1,-1,-1,-1],"split_conditions":[5.7E1,1E0,1E0,1.35E1,1.97E1,4.374574E-2,1.137695E-2,1.96E2,1.47E2,4.902489E-2,-8.504809E-3,5.8E1,-1.778564E-2,2.8E1,1.132194E-2,3.9E-1,-1.1920492E-2,-4.281615E-2,1.17E2,-3.2500073E-3,3.84813E-2,-5.8333124E-3,-2.6776845E-2],"split_indices":[13,3,1,15,10,0,0,7,7,0,0,8,0,13,0,18,0,0,7,0,0,0,0],"split_type":[0,0,0,0,0,0,0,0,0,0,0,0,0,0,0,0,0,0,0,0,0,0,0],"sum_hessian":[2.4252716E2,2.0561226E2,3.69149E1,1.8049968E2,2.511258E1,1.9230753E1,1.7684149E1,8.722045E1,9.327922E1,1.4130134E1,1.0982447E1,7.124536E1,1.5975088E1,8.044511E1,1.2834111E1,5.3917164E1,1.73282E1,1.2780568E1,6.766454E1,2.6703283E1,2.7213882E1,4.0809116E1,2.6855425E1],"tree_param":{"num_deleted":"0","num_feature":"19","num_nodes":"23","size_leaf_vector":"1"}},{"base_weights":[-2.7002836E-2,1.3538866E-1,-2.6695105E-1,7.223624E-2,4.196426E-2,-3.3748218E-1,1.3448591E-2,-2.8560495E-2,1.2830713E-1,-2.0169508E-2,-4.8046875E-1,4.038206E-2,4.315493E-2,3.000128E-2,-2.239828E-2,-5.7803744E-1,-1.6459989E-3,-1.5400027E-1,2.7226752E-1,-4.4080824E-2,-4.2299116E-1,-2.5866283E-2,7.625706E-4,3.802797E-2,4.3569035E-3,-1.0826978E-2,-3.867378E-2],"categories":[],"categories_nodes":[],"categories_segments":[],"categories_sizes":[],"default_left":[0,0,0,0,0,0,0,0,0,0,0,0,0,0,0,0,0,0,0,0,0,0,0,0,0,0,0],"id":23,"left_children":[1,3,5,7,-1,9,-1,-1,11,13,15,17,-1,-1,-1,19,-1,21,23,-1,25,-1,-1,-1,-1,-1,-1],"loss_changes":[9.977879E0,6.7328863E0,3.9960504E0,5.17254E0,0E0,4.1528664E0,0E0,0E0,8.417286E0,8.107056E0,2.7407541E0,5.355859E0,0E0,0E0,0E0,2.0665874E0,0E0,3.9908807E0,4.826144E0,0E0,2.4539905E0,0E0,0E0,0E0,0E0,0E0,0E0],"parents":[2147483647,0,0,1,1,2,2,3,3,5,5,8,8,9,9,10,10,11,11,15,15,17,17,18,18,20,20],"right_children":[2,4,6,8,-1,10,-1,-1,12,14,16,18,-1,-1,-1,20,-1,22,24,-1,26,-1,-1,-1,-1,-1,-1],"split_conditions":[6.1E-1,9E1,1E0,4.9E0,4.196426E-2,1.03E1,1.3448591E-2,-2.8560495E-2,4E0,7E-1,1.82E1,1E0,4.315493E-2,3.000128E-2,-2.239828E-2,1.03E2,-1.6459989E-3,1.21E1,4.5E1,-4.4080824E-2,1.44E2,-2.5866283E-2,7.625706E-4,3.802797E-2,4.3569035E-3,-1.0826978E-2,-3.867378E-2],"split_indices":[18,0,3,15,0,10,0,0,2,17,10,1,0,0,0,7,0,10,8,0,7,0,0,0,0,0,0],"split_type":[0,0,0,0,0,0,0,0,0,0,0,0,0,0,0,0,0,0,0,0,0,0,0,0,0,0,0],"sum_hessian":[2.541417E2,1.5182544E2,1.0231625E2,1.4033723E2,1.1488201E1,9.0743996E1,1.1572256E1,1.0512532E1,1.298247E2,2.8543013E1,6.220098E1,1.16892334E2,1.2932368E1,1.1487082E1,1.7055933E1,5.082846E1,1.1372519E1,6.3770985E1,5.312135E1,1.5599214E1,3.5229248E1,1.9612696E1,4.415829E1,1.374904E1,3.9372307E1,2.3188171E1,1.2041079E1],"tree_param":{"num_deleted":"0","num_feature":"19","num_nodes":"27","size_leaf_vector":"1"}},{"base_weights":[-5.498535E-3,1.9368804E-1,-2.7627513E-1,8.0696955E-2,4.6197385E-2,2.2610059E-2,-4.076695E-1,-2.2058207E-1,2.4470524E-1,-2.1095539E-2,2.2423733E-2,-6.206772E-1,-1.3858442E-1,-4.068082E-1,1.7797116E-2,4.5081567E-2,1.4359483E-1,-4.435078E-2,-4.1516492E-1,4.1184933E-3,-2.1016225E-2,-6.249697E-1,2.322735E-3,4.6226266E-1,-1.7250741E-3,-3.1089056E-2,-9.064524E-3,-3.8160063E-2,-2.1653958E-2,4.991826E-2,-2.937705E-3,-1.1609977E-2,1.480099E-2],"categories":[],"categories_nodes":[],"categories_segments":[],"categories_sizes":[],"default_left":[0,0,0,0,0,0,0,0,0,0,0,0,0,0,0,0,0,0,0,0,0,0,0,0,0,0,0,0,0,0,0,0,0],"id":24,"left_children":[1,3,5,7,-1,9,11,13,15,-1,-1,17,19,21,-1,-1,23,-1,25,-1,-1,27,-1,29,31,-1,-1,-1,-1,-1,-1,-1,-1],"loss_changes":[1.3842252E1,1.212803E1,4.2807093E0,6.4364E0,0E0,6.656221E0,4.247484E0,5.0895195E0,5.457364E0,0E0,0E0,1.9258633E0,2.1943202E0,3.5174627E0,0E0,0E0,3.4314165E0,0E0,1.1213121E0,0E0,0E0,3.030157E-1,0E0,6.540478E0,3.6285706E0,0E0,0E0,0E0,0E0,0E0,0E0,0E0,0E0],"parents":[2147483647,0,0,1,1,2,2,3,3,5,5,6,6,7,7,8,8,11,11,12,12,13,13,16,16,18,18,21,21,23,23,24,24],"right_children":[2,4,6,8,-1,10,12,14,16,-1,-1,18,20,22,-1,-1,24,-1,26,-1,-1,28,-1,30,32,-1,-1,-1,-1,-1,-1,-1,-1],"split_conditions":[6E-1,1E0,1.04E1,4.4E1,4.6197385E-2,2.43E1,1.6E1,1.47E1,9.9E1,-2.1095539E-2,2.2423733E-2,1.12E2,4.4E1,1E0,1.7797116E-2,4.5081567E-2,1.44E1,-4.435078E-2,4.2E1,4.1184933E-3,-2.1016225E-2,2E1,2.322735E-3,5.6E1,1E0,-3.1089056E-2,-9.064524E-3,-3.8160063E-2,-2.1653958E-2,4.991826E-2,-2.937705E-3,-1.1609977E-2,1.480099E-2],"split_indices":[18,3,10,9,0,14,10,10,7,0,0,7,11,6,0,0,10,0,9,0,0,12,0,8,6,0,0,0,0,0,0,0,0],"split_type":[0,0,0,0,0,0,0,0,0,0,0,0,0,0,0,0,0,0,0,0,0,0,0,0,0,0,0,0,0,0,0,0,0],"sum_hessian":[2.546545E2,1.4688719E2,1.0776731E2,1.281668E2,1.8720392E1,3.3161705E1,7.4605606E1,4.5055695E1,8.31111E1,1.6229992E1,1.6931711E1,4.0912594E1,3.3693012E1,3.4277817E1,1.0777877E1,1.0029697E1,7.30814E1,1.6374962E1,2.4537632E1,1.928019E1,1.4412824E1,2.2884417E1,1.1393401E1,2.2205845E1,5.0875557E1,1.2147405E1,1.2390227E1,1.1571453E1,1.1312963E1,1.049292E1,1.1712924E1,2.8801447E1,2.207411E1],"tree_param":{"num_deleted":"0","num_feature":"19","num_nodes":"33","size_leaf_vector":"1"}},{"base_weights":[3.690949E-2,-3.9663356E-2,5.3811395E-1,9.86843E-2,-3.1507552E-1,5.561763E-2,6.251462E-3,2.8777322E-2,2.77506E-2,-8.721523E-2,-5.986331E-1,3.1960916E-2,-4.6512038E-2,2.0703085E-1,-2.1710778E-2,-3.6600962E-2,-1.3736009E-2,-1.267463E-1,2.3261199E-2,-1.8743463E-2,3.4496903E-2,1.5496053E-2,-9.2871E-3],"categories":[],"categories_nodes":[],"categories_segments":[],"categories_sizes":[],"default_left":[0,0,0,0,0,0,0,0,0,0,0,0,0,0,0,0,0,0,0,0,0,0,0],"id":25,"left_children":[1,3,5,7,9,-1,-1,11,-1,13,15,-1,17,19,-1,-1,-1,21,-1,-1,-1,-1,-1],"loss_changes":[9.581593E0,8.300163E0,7.708354E0,4.6165476E0,4.6517134E0,0E0,0E0,5.865751E0,0E0,4.330921E0,1.1929951E0,0E0,4.738497E0,6.7649927E0,0E0,0E0,0E0,2.6159408E0,0E0,0E0,0E0,0E0,0E0],"parents":[2147483647,0,0,1,1,2,2,3,3,4,4,7,7,9,9,10,10,12,12,13,13,17,17],"right_children":[2,4,6,8,10,-1,-1,12,-1,14,16,-1,18,20,-1,-1,-1,22,-1,-1,-1,-1,-1],"split_conditions":[1E0,1.8E1,3E0,4E0,1.67E1,5.561763E-2,6.251462E-3,3.6E1,2.77506E-2,2.25E1,2.73E1,3.1960916E-2,1.84E2,2.1E1,-2.1710778E-2,-3.6600962E-2,-1.3736009E-2,4.5E1,2.3261199E-2,-1.8743463E-2,3.4496903E-2,1.5496053E-2,-9.2871E-3],"split_indices":[3,16,2,2,15,0,0,8,0,14,14,0,7,12,0,0,0,8,0,0,0,0,0],"split_type":[0,0,0,0,0,0,0,0,0,0,0,0,0,0,0,0,0,0,0,0,0,0,0],"sum_hessian":[2.481033E2,2.16021E2,3.2082317E1,1.4421782E2,7.180318E1,1.2714626E1,1.9367693E1,1.25981224E2,1.8236591E1,4.0536533E1,3.1266644E1,1.3009657E1,1.12971565E2,2.215398E1,1.8382555E1,2.1254284E1,1.0012361E1,9.831001E1,1.4661549E1,1.0148648E1,1.2005332E1,1.1194992E1,8.711502E1],"tree_param":{"num_deleted":"0","num_feature":"19","num_nodes":"23","size_leaf_vector":"1"}},{"base_weights":[3.851872E-2,-2.3060542E-2,4.3782508E-1,1.4861893E-2,-3.391391E-2,7.293724E-1,-8.637368E-3,9.786422E-2,-2.198456E-1,1.5838755E-2,5.8666278E-2,-2.3164856E-1,1.8082237E-1,9.138567E-3,-3.4933951E-1,-4.1594273E-1,7.5262547E-3,4.5384926E-1,1.0481303E-1,-4.6383208E-1,-4.206319E-3,-1.241304E-2,-2.7860677E-2,5.0173863E-3,3.7327494E-2,1.2905692E-2,-5.585618E-3,-1.3278558E-2,-3.278519E-2],"categories":[],"categories_nodes":[],"categories_segments":[],"categories_sizes":[],"default_left":[0,0,0,0,0,0,0,0,0,0,0,0,0,0,0,0,0,0,0,0,0,0,0,0,0,0,0,0,0],"id":26,"left_children":[1,3,5,7,-1,9,-1,11,13,-1,-1,15,17,-1,19,21,-1,23,25,27,-1,-1,-1,-1,-1,-1,-1,-1,-1],"loss_changes":[6.3847203E0,5.614642E0,6.3008747E0,4.1943407E0,0E0,3.963892E0,0E0,4.386347E0,2.9974306E0,0E0,0E0,2.3448334E0,2.5989337E0,0E0,1.2641726E0,3.8581753E-1,0E0,2.7675166E0,3.3832173E0,9.577708E-1,0E0,0E0,0E0,0E0,0E0,0E0,0E0,0E0,0E0],"parents":[2147483647,0,0,1,1,2,2,3,3,5,5,7,7,8,8,11,11,12,12,14,14,15,15,17,17,18,18,19,19],"right_children":[2,4,6,8,-1,10,-1,12,14,-1,-1,16,18,-1,20,22,-1,24,26,28,-1,-1,-1,-1,-1,-1,-1,-1,-1],"split_conditions":[1E0,1.06E0,2.11E1,1.9E1,-3.391391E-2,2E1,-8.637368E-3,7.3E1,1.46E1,1.5838755E-2,5.8666278E-2,1E0,1.09E1,9.138567E-3,4.8E1,3.9E1,7.5262547E-3,4.3E-1,1E0,1.03E2,-4.206319E-3,-1.241304E-2,-2.7860677E-2,5.0173863E-3,3.7327494E-2,1.2905692E-2,-5.585618E-3,-1.3278558E-2,-3.278519E-2],"split_indices":[3,18,10,16,0,12,0,0,15,0,0,1,10,0,11,11,0,17,5,7,0,0,0,0,0,0,0,0,0],"split_type":[0,0,0,0,0,0,0,0,0,0,0,0,0,0,0,0,0,0,0,0,0,0,0,0,0,0,0,0,0],"sum_hessian":[2.5824707E2,2.2455884E2,3.368822E1,2.1319684E2,1.1362005E1,2.2669163E1,1.101906E1,1.5792946E2,5.5267384E1,1.2637637E1,1.0031526E1,3.1403051E1,1.265264E2,1.3349686E1,4.1917698E1,2.1126795E1,1.0276256E1,2.6471031E1,1.00055374E2,2.8755177E1,1.3162519E1,1.0921189E1,1.0205606E1,1.2598434E1,1.3872596E1,5.8467842E1,4.158753E1,1.5314656E1,1.344052E1],"tree_param":{"num_deleted":"0","num_feature":"19","num_nodes":"29","size_leaf_vector":"1"}},{"base_weights":[4.408374E-2,1.840806E-1,-2.0485936E-1,3.595272E-2,1.2611231E-1,-3.558669E-1,2.2431508E-1,1.8779758E-1,-2.50592E-1,-4.2181927E-1,-9.602769E-4,3.278769E-2,-1.1036887E-2,1.09294094E-1,3.0421678E-2,-5.601809E-3,-1.8434098E-2,-5.0963086E-1,-7.9847034E-4,2.7856776E-2,3.8759243E-2,-1.3441714E-2,-6.716097E-1,2.370318E-2,-2.3611353E-3,-4.575594E-2,-2.3093948E-2],"categories":[],"categories_nodes":[],"categories_segments":[],"categories_sizes":[],"default_left":[0,0,0,0,0,0,0,0,0,0,0,0,0,0,0,0,0,0,0,0,0,0,0,0,0,0,0],"id":27,"left_children":[1,3,5,-1,7,9,11,13,15,17,-1,-1,-1,19,-1,-1,-1,21,-1,23,-1,-1,25,-1,-1,-1,-1],"loss_changes":[8.85897E0,4.949688E0,6.014964E0,0E0,3.4827855E0,1.5046339E0,4.83934E0,4.147765E0,3.0610788E-1,2.0204678E0,0E0,0E0,0E0,5.876773E0,0E0,0E0,0E0,1.6434479E0,0E0,3.3039289E0,0E0,0E0,9.710827E-1,0E0,0E0,0E0,0E0],"parents":[2147483647,0,0,1,1,2,2,4,4,5,5,6,6,7,7,8,8,9,9,13,13,17,17,19,19,22,22],"right_children":[2,4,6,-1,8,10,12,14,16,18,-1,-1,-1,20,-1,-1,-1,22,-1,24,-1,-1,26,-1,-1,-1,-1],"split_conditions":[1.6E1,1.4E1,4.7E1,3.595272E-2,2.3E1,1.64E1,4.5E1,1E0,3.5E1,5E1,-9.602769E-4,3.278769E-2,-1.1036887E-2,4.9E1,3.0421678E-2,-5.601809E-3,-1.8434098E-2,1.04E1,-7.9847034E-4,3.6E1,3.8759243E-2,-1.3441714E-2,1.29E1,2.370318E-2,-2.3611353E-3,-4.575594E-2,-2.3093948E-2],"split_indices":[16,12,9,0,10,10,11,3,11,11,0,0,0,11,0,0,0,10,0,8,0,0,10,0,0,0,0],"split_type":[0,0,0,0,0,0,0,0,0,0,0,0,0,0,0,0,0,0,0,0,0,0,0,0,0,0,0],"sum_hessian":[2.5211168E2,1.615322E2,9.057949E1,1.4677079E1,1.4685512E2,6.713016E1,2.3449331E1,1.2662222E2,2.0232895E1,5.592202E1,1.1208136E1,1.1666387E1,1.1782945E1,1.0776906E2,1.885316E1,1.0206392E1,1.0026502E1,4.5764484E1,1.0157535E1,9.695363E1,1.0815432E1,1.9474106E1,2.629038E1,1.3198589E1,8.375504E1,1.0609201E1,1.5681178E1],"tree_param":{"num_deleted":"0","num_feature":"19","num_nodes":"27","size_leaf_vector":"1"}},{"base_weights":[9.033917E-3,-5.753696E-2,3.235554E-1,-1.1282761E-1,2.7976817E-1,5.8194563E-2,3.6135834E-2,3.8171493E-2,-2.520995E-1,3.460234E-2,-6.595984E-3,2.1245217E-2,-8.636805E-3,-1.1104399E-1,2.810317E-1,1.1358013E-2,-3.128943E-1,-4.276063E-1,1.9316207E-1,4.0977884E-2,-6.1534746E-3,-5.5568546E-1,-2.113001E-1,-3.2895695E-2,-8.313844E-3,3.3985566E-2,-6.6132243E-3,-3.5796788E-2,-1.5807835E-2,5.884479E-3,-1.8801836E-2],"categories":[],"categories_nodes":[],"categories_segments":[],"categories_sizes":[],"default_left":[0,0,0,0,0,0,0,0,0,0,0,0,0,0,0,0,0,0,0,0,0,0,0,0,0,0,0,0,0,0,0],"id":28,"left_children":[1,3,5,7,9,11,-1,13,15,-1,-1,-1,-1,17,19,-1,21,23,25,-1,-1,27,29,-1,-1,-1,-1,-1,-1,-1,-1],"loss_changes":[5.418245E0,4.0167913E0,4.745582E0,3.8855543E0,5.247984E0,2.4647112E0,0E0,3.2672381E0,2.868393E0,0E0,0E0,0E0,0E0,5.4782963E0,7.5582647E0,0E0,1.9945059E0,1.5618849E0,4.723047E0,0E0,0E0,7.196212E-1,3.4031284E0,0E0,0E0,0E0,0E0,0E0,0E0,0E0,0E0],"parents":[2147483647,0,0,1,1,2,2,3,3,4,4,5,5,7,7,8,8,13,13,14,14,16,16,17,17,18,18,21,21,22,22],"right_children":[2,4,6,8,10,12,-1,14,16,-1,-1,-1,-1,18,20,-1,22,24,26,-1,-1,28,30,-1,-1,-1,-1,-1,-1,-1,-1],"split_conditions":[5.7E1,1E0,8.4E1,1.32E1,3E0,1E0,3.6135834E-2,2.07E1,1.77E1,3.460234E-2,-6.595984E-3,2.1245217E-2,-8.636805E-3,1E0,3.8E1,1.1358013E-2,2.17E1,1.43E1,8E0,4.0977884E-2,-6.1534746E-3,1E0,2.2E1,-3.2895695E-2,-8.313844E-3,3.3985566E-2,-6.6132243E-3,-3.5796788E-2,-1.5807835E-2,5.884479E-3,-1.8801836E-2],"split_indices":[13,3,0,15,2,4,0,14,14,0,0,0,0,1,11,0,14,14,16,0,0,1,12,0,0,0,0,0,0,0,0],"split_type":[0,0,0,0,0,0,0,0,0,0,0,0,0,0,0,0,0,0,0,0,0,0,0,0,0,0,0,0,0,0,0],"sum_hessian":[2.568869E2,2.1268712E2,4.419979E1,1.8330542E2,2.9381699E1,2.7237919E1,1.6961872E1,8.8298164E1,9.5007256E1,1.434006E1,1.5041638E1,1.0200274E1,1.7037643E1,5.5030003E1,3.326816E1,1.0387065E1,8.462019E1,2.6768534E1,2.8261467E1,1.3821208E1,1.9446953E1,2.3644537E1,6.0975655E1,1.3422143E1,1.3346392E1,1.0890408E1,1.7371061E1,1.2975018E1,1.0669519E1,2.0440416E1,4.0535236E1],"tree_param":{"num_deleted":"0","num_feature":"19","num_nodes":"31","size_leaf_vector":"1"}},{"base_weights":[2.2668362E-4,1.3732608E-1,-1.9235682E-1,7.6972775E-2,3.761143E-2,-3.8826674E-2,-1.10755436E-1,-2.7575312E-2,1.2893344E-1,1.4913453E-1,-2.3487937E-1,4.475361E-2,3.6322836E-2,2.0770252E-2,-1.4609662E-2,-4.0160093E-1,9.885386E-3,-1.835814E-1,2.8075942E-1,-5.3813034E-1,1.2340883E-3,-1.6458308E-2,2.1717718E-2,2.2755038E-2,-6.150232E-3,-1.9514851E-2,-4.1433796E-2],"categories":[],"categories_nodes":[],"categories_segments":[],"categories_sizes":[],"default_left":[0,0,0,0,0,0,0,0,0,0,0,0,0,0,0,0,0,0,0,0,0,0,0,0,0,0,0],"id":29,"left_children":[1,3,5,7,-1,-1,9,-1,11,13,15,17,-1,-1,-1,19,-1,21,23,25,-1,-1,-1,-1,-1,-1,-1],"loss_changes":[6.9739237E0,5.6680784E0,5.1500635E0,4.6957245E0,0E0,0E0,3.1816726E0,0E0,6.5874743E0,3.8983164E0,4.8685427E0,6.325511E0,0E0,0E0,0E0,2.8220668E0,0E0,5.5208087E0,4.1138635E0,1.2485104E0,0E0,0E0,0E0,0E0,0E0,0E0,0E0],"parents":[2147483647,0,0,1,1,2,2,3,3,6,6,8,8,9,9,10,10,11,11,15,15,17,17,18,18,19,19],"right_children":[2,4,6,8,-1,-1,10,-1,12,14,16,18,-1,-1,-1,20,-1,22,24,26,-1,-1,-1,-1,-1,-1,-1],"split_conditions":[6.1E-1,9E1,2.01E1,5E0,3.761143E-2,-3.8826674E-2,1.03E1,-2.7575312E-2,4E0,8.6E-1,1.82E1,1E0,3.6322836E-2,2.0770252E-2,-1.4609662E-2,8.2E-1,9.885386E-3,2.22E1,1.92E1,1.44E2,1.2340883E-3,-1.6458308E-2,2.1717718E-2,2.2755038E-2,-6.150232E-3,-1.9514851E-2,-4.1433796E-2],"split_indices":[18,0,14,15,0,0,10,0,2,18,10,1,0,0,0,17,0,14,10,7,0,0,0,0,0,0,0],"split_type":[0,0,0,0,0,0,0,0,0,0,0,0,0,0,0,0,0,0,0,0,0,0,0,0,0,0,0],"sum_hessian":[2.6213245E2,1.5329167E2,1.0884078E2,1.4061533E2,1.2676359E1,1.22963295E1,9.654445E1,1.0003711E1,1.306116E2,3.1140715E1,6.540374E1,1.1542525E2,1.5186358E1,1.9459042E1,1.1681673E1,4.7260788E1,1.814295E1,5.8778923E1,5.6646328E1,3.559733E1,1.1663458E1,4.794942E1,1.0829501E1,3.9474487E1,1.717184E1,2.5146027E1,1.0451302E1],"tree_param":{"num_deleted":"0","num_feature":"19","num_nodes":"27","size_leaf_vector":"1"}},{"base_weights":[3.448023E-2,-5.1245686E-2,4.4003448E-1,-1.1630758E-1,3.801986E-1,-1.9187296E-3,7.8014505E-1,7.4079014E-2,-2.9514256E-1,3.324021E-2,-1.7949952E-3,7.350112E-2,1.221466E-2,-5.815157E-2,2.574035E-2,-3.923343E-1,2.4892325E-2,3.7816858E-1,-3.0513555E-1,-2.1337909E-1,-7.2599715E-1,1.4018829E-2,-1.411932E-2,-1.7247444E-3,3.5046455E-2,2.034061E-2,-2.716975E-2,-2.0343693E-2,1.2550208E-2,-4.3567803E-2,-2.2901991E-2],"categories":[],"categories_nodes":[],"categories_segments":[],"categories_sizes":[],"default_left":[0,0,0,0,0,0,0,0,0,0,0,0,0,0,0,0,0,0,0,0,0,0,0,0,0,0,0,0,0,0,0],"id":30,"left_children":[1,3,5,7,9,-1,11,13,15,-1,-1,-1,-1,17,-1,19,21,23,25,27,29,-1,-1,-1,-1,-1,-1,-1,-1,-1,-1],"loss_changes":[8.970622E0,6.033389E0,7.3544445E0,6.3604746E0,3.3625894E0,0E0,9.38447E0,5.331527E0,3.0019493E0,0E0,0E0,0E0,0E0,7.753153E0,0E0,4.254592E0,1.9121959E0,3.4957674E0,7.99176E0,4.548525E0,5.888138E-1,0E0,0E0,0E0,0E0,0E0,0E0,0E0,0E0,0E0,0E0],"parents":[2147483647,0,0,1,1,2,2,3,3,4,4,6,6,7,7,8,8,13,13,15,15,16,16,17,17,18,18,19,19,20,20],"right_children":[2,4,6,8,10,-1,12,14,16,-1,-1,-1,-1,18,-1,20,22,24,26,28,30,-1,-1,-1,-1,-1,-1,-1,-1,-1,-1],"split_conditions":[5.7E1,1E0,8.9E0,1.35E1,3E0,-1.9187296E-3,1E0,1.16E1,1.39E2,3.324021E-2,-1.7949952E-3,7.350112E-2,1.221466E-2,1.29E2,2.574035E-2,1.17E2,1.59E1,8.9E0,8E0,1.04E2,1.33E1,1.4018829E-2,-1.411932E-2,-1.7247444E-3,3.5046455E-2,2.034061E-2,-2.716975E-2,-2.0343693E-2,1.2550208E-2,-4.3567803E-2,-2.2901991E-2],"split_indices":[13,3,15,15,2,0,4,15,7,0,0,0,0,7,0,7,10,15,15,7,10,0,0,0,0,0,0,0,0,0,0],"split_type":[0,0,0,0,0,0,0,0,0,0,0,0,0,0,0,0,0,0,0,0,0,0,0,0,0,0,0,0,0,0,0],"sum_hessian":[2.5637622E2,2.1236104E2,4.4015163E1,1.8516808E2,2.7192965E1,1.8657778E1,2.5357384E1,8.9971146E1,9.519694E1,1.5793038E1,1.1399926E1,1.0323351E1,1.5034033E1,6.987482E1,2.0096325E1,7.28478E1,2.2349138E1,2.5064646E1,4.4810173E1,4.8483746E1,2.4364052E1,1.2250835E1,1.0098303E1,1.1392262E1,1.3672383E1,1.1058529E1,3.3751644E1,3.4311146E1,1.4172601E1,1.4335581E1,1.0028472E1],"tree_param":{"num_deleted":"0","num_feature":"19","num_nodes":"31","size_leaf_vector":"1"}},{"base_weights":[2.2760114E-2,4.235803E-1,-3.4453925E-2,5.9753037E-3,4.1438345E-2,7.3244005E-2,-2.172619E-1,1.6538984E-1,-3.4910408E-1,-9.0976395E-2,-4.8205885E-1,1.8942429E-2,4.869608E-1,-3.6123287E-2,4.7925976E-3,1.11252174E-1,-3.8037762E-1,-1.2186714E-2,-3.7740335E-2,3.629932E-1,-2.3299107E-1,5.0285812E-2,2.4419627E-1,-2.3354856E-2,3.6760172E-1,-4.2003514E-3,-3.1071544E-2,-4.720963E-3,5.731995E-2,-2.0021716E-2,9.710314E-3,3.2743584E-2,-4.676617E-3,3.4765292E-2,1.9354097E-3],"categories":[],"categories_nodes":[],"categories_segments":[],"categories_sizes":[],"default_left":[0,0,0,0,0,0,0,0,0,0,0,0,0,0,0,0,0,0,0,0,0,0,0,0,0,0,0,0,0,0,0,0,0,0,0],"id":31,"left_children":[1,3,5,-1,-1,7,9,11,13,15,17,19,21,-1,-1,23,25,-1,-1,27,29,-1,31,-1,33,-1,-1,-1,-1,-1,-1,-1,-1,-1,-1],"loss_changes":[5.9164E0,3.8709269E0,4.468031E0,0E0,0E0,5.624813E0,2.7679617E0,5.552787E0,4.3788643E0,3.4464822E0,1.5658712E0,7.208654E0,4.4034576E0,0E0,0E0,5.362777E0,1.6732688E0,0E0,0E0,1.2698239E1,3.5152748E0,0E0,3.732325E0,0E0,2.6481595E0,0E0,0E0,0E0,0E0,0E0,0E0,0E0,0E0,0E0,0E0],"parents":[2147483647,0,0,1,1,2,2,5,5,6,6,7,7,8,8,9,9,10,10,11,11,12,12,15,15,16,16,19,19,20,20,22,22,24,24],"right_children":[2,4,6,-1,-1,8,10,12,14,16,18,20,22,-1,-1,24,26,-1,-1,28,30,-1,32,-1,34,-1,-1,-1,-1,-1,-1,-1,-1,-1,-1],"split_conditions":[2.9E-1,1.12E1,1.48E1,5.9753037E-3,4.1438345E-2,1.96E2,2.59E1,3.9E1,1.9E1,2.2E1,1E0,9E0,5.2E1,-3.6123287E-2,4.7925976E-3,4.4E-1,1.72E1,-1.2186714E-2,-3.7740335E-2,7E0,1.63E1,5.0285812E-2,1.29E2,-2.3354856E-2,4.1E1,-4.2003514E-3,-3.1071544E-2,-4.720963E-3,5.731995E-2,-2.0021716E-2,9.710314E-3,3.2743584E-2,-4.676617E-3,3.4765292E-2,1.9354097E-3],"split_indices":[17,14,15,0,0,7,14,11,12,16,4,16,8,0,0,17,15,0,0,16,10,0,7,0,11,0,0,0,0,0,0,0,0,0,0],"split_type":[0,0,0,0,0,0,0,0,0,0,0,0,0,0,0,0,0,0,0,0,0,0,0,0,0,0,0,0,0,0,0,0,0,0,0],"sum_hessian":[2.563551E2,3.1222E1,2.251331E2,1.8576283E1,1.2645719E1,1.4204768E2,8.308542E1,1.17106384E2,2.4941292E1,5.7165794E1,2.5919626E1,8.119025E1,3.591614E1,1.3222576E1,1.1718715E1,3.40134E1,2.3152397E1,1.4843306E1,1.107632E1,3.4134262E1,4.705599E1,1.0447807E1,2.5468332E1,1.01935835E1,2.3819817E1,1.0989502E1,1.2162894E1,2.2106352E1,1.202791E1,3.3850624E1,1.3205362E1,1.1069211E1,1.4399122E1,1.1373436E1,1.2446381E1],"tree_param":{"num_deleted":"0","num_feature":"19","num_nodes":"35","size_leaf_vector":"1"}},{"base_weights":[1.2457838E-2,-7.037545E-2,2.6085934E-1,-3.21019E-1,3.7692312E-2,1.5172929E-1,3.706132E-2,-3.4508567E-2,-1.3071899E-1,2.588885E-1,-1.6015023E-1,3.6027137E-2,-8.292448E-3,1.0731026E-2,-2.2988506E-2,-1.9441527E-1,5.3497887E-1,-3.9706734E-1,9.288705E-3,-1.0704499E-2,1.9655472E-1,4.95838E-3,-2.1466773E-2,7.107352E-2,2.6838334E-2,-3.0306978E-2,-8.438563E-3,1.9609375E-1,-2.043065E-2,2.8709913E-2,-1.017653E-2,-1.7198794E-2,1.9934228E-2,2.5430113E-2,-7.2483234E-3],"categories":[],"categories_nodes":[],"categories_segments":[],"categories_sizes":[],"default_left":[0,0,0,0,0,0,0,0,0,0,0,0,0,0,0,0,0,0,0,0,0,0,0,0,0,0,0,0,0,0,0,0,0,0,0],"id":32,"left_children":[1,3,5,7,9,11,-1,-1,13,15,17,-1,19,-1,-1,21,23,25,27,-1,29,-1,-1,-1,31,-1,-1,33,-1,-1,-1,-1,-1,-1,-1],"loss_changes":[5.2048125E0,5.1535783E0,3.2031126E0,3.9344306E0,5.884849E0,4.8116064E0,0E0,0E0,4.53458E0,8.041773E0,2.8579295E0,0E0,1.8208076E0,0E0,0E0,1.7489228E0,1.7837837E1,1.3138762E0,3.3925936E0,0E0,3.3904681E0,0E0,0E0,0E0,3.755811E0,0E0,0E0,3.2711904E0,0E0,0E0,0E0,0E0,0E0,0E0,0E0],"parents":[2147483647,0,0,1,1,2,2,3,3,4,4,5,5,8,8,9,9,10,10,12,12,15,15,16,16,17,17,18,18,20,20,24,24,27,27],"right_children":[2,4,6,8,10,12,-1,-1,14,16,18,-1,20,-1,-1,22,24,26,28,-1,30,-1,-1,-1,32,-1,-1,34,-1,-1,-1,-1,-1,-1,-1],"split_conditions":[5.1E1,3.7E1,4E0,2.06E1,1.23E2,2.3E-1,3.706132E-2,-3.4508567E-2,2.2E1,9.3E1,1.46E2,3.6027137E-2,3.5E-1,1.0731026E-2,-2.2988506E-2,1.49E1,5.7E1,3E0,2.15E2,-1.0704499E-2,3.8E-1,4.95838E-3,-2.1466773E-2,7.107352E-2,6.3E1,-3.0306978E-2,-8.438563E-3,1E0,-2.043065E-2,2.8709913E-2,-1.017653E-2,-1.7198794E-2,1.9934228E-2,2.5430113E-2,-7.2483234E-3],"split_indices":[13,9,2,14,7,18,0,0,12,7,7,0,18,0,0,10,8,2,7,0,17,0,0,0,8,0,0,4,0,0,0,0,0,0,0],"split_type":[0,0,0,0,0,0,0,0,0,0,0,0,0,0,0,0,0,0,0,0,0,0,0,0,0,0,0,0,0,0,0,0,0,0,0],"sum_hessian":[2.5106438E2,1.888171E2,6.2247276E1,5.6290646E1,1.3252646E2,5.1796074E1,1.04512E1,1.8253994E1,3.803665E1,6.2424595E1,7.010186E1,1.06031885E1,4.1192886E1,1.8728662E1,1.9307991E1,2.3740942E1,3.8683655E1,2.8670315E1,4.1431545E1,2.0526268E1,2.0666618E1,1.0809737E1,1.2931204E1,1.3439677E1,2.5243977E1,1.4101336E1,1.4568979E1,2.899938E1,1.2432164E1,1.0407609E1,1.0259009E1,1.2677055E1,1.2566921E1,1.4876772E1,1.4122608E1],"tree_param":{"num_deleted":"0","num_feature":"19","num_nodes":"35","size_leaf_vector":"1"}},{"base_weights":[-5.2109724E-3,3.0951347E-2,-3.186847E-2,-2.1047082E-2,6.906107E-2,4.325951E-2,2.2200555E-2,1.7063169E-1,-1.0584351E-1,-3.1680393E-1,3.06539E-1,3.3224456E-2,-1.8976103E-1,-5.7312526E-4,-2.8911991E-2,5.728887E-3,3.816733E-2,-1.2711206E-2,8.748962E-3],"categories":[],"categories_nodes":[],"categories_segments":[],"categories_sizes":[],"default_left":[0,0,0,0,0,0,0,0,0,0,0,0,0,0,0,0,0,0,0],"id":33,"left_children":[1,3,-1,-1,5,-1,7,9,11,13,15,-1,17,-1,-1,-1,-1,-1,-1],"loss_changes":[5.7926335E0,4.159119E0,0E0,0E0,8.263935E0,0E0,4.022768E0,6.5871935E0,7.478833E0,1.7377553E0,6.6749063E0,0E0,2.4743776E0,0E0,0E0,0E0,0E0,0E0,0E0],"parents":[2147483647,0,0,1,1,4,4,6,6,7,7,8,8,9,9,10,10,12,12],"right_children":[2,4,-1,-1,6,-1,8,10,12,14,16,-1,18,-1,-1,-1,-1,-1,-1],"split_conditions":[1.06E0,5.7E0,-3.186847E-2,-2.1047082E-2,7.1E0,4.325951E-2,5.6E1,8.9E0,3.7E-1,1.59E2,1E0,3.3224456E-2,1E0,-5.7312526E-4,-2.8911991E-2,5.728887E-3,3.816733E-2,-1.2711206E-2,8.748962E-3],"split_indices":[18,15,0,0,15,0,8,15,17,7,5,0,3,0,0,0,0,0,0],"split_type":[0,0,0,0,0,0,0,0,0,0,0,0,0,0,0,0,0,0,0],"sum_hessian":[2.5152963E2,2.3881914E2,1.2710497E1,1.7792757E1,2.2102638E2,1.1315774E1,2.097106E2,9.6969315E1,1.1274129E2,2.0851992E1,7.6117325E1,1.0395548E1,1.0234574E2,1.00998335E1,1.0752157E1,5.4476036E1,2.1641285E1,8.723168E1,1.5114063E1],"tree_param":{"num_deleted":"0","num_feature":"19","num_nodes":"19","size_leaf_vector":"1"}},{"base_weights":[-1.7660625E-2,-7.561499E-2,3.271554E-1,-3.147206E-2,-2.8310183E-2,4.1021988E-2,4.4128638E-2,-2.1731655E-1,2.9371278E-2,-1.3009182E-2,1.7046599E-2,-2.5032941E-2,-3.4643464E-2,2.406614E-2,-3.2511763E-2,-3.128279E-1,2.5147645E-2,2.3961632E-2,-8.1224084E-2,-2.466905E-4,-2.879618E-2,-6.9522844E-3,1.883887E-2],"categories":[],"categories_nodes":[],"categories_segments":[],"categories_sizes":[],"default_left":[0,0,0,0,0,0,0,0,0,0,0,0,0,0,0,0,0,0,0,0,0,0,0],"id":34,"left_children":[1,3,5,7,-1,9,-1,11,13,-1,-1,-1,15,-1,17,19,-1,-1,21,-1,-1,-1,-1],"loss_changes":[5.2160687E0,4.816072E0,5.9341135E0,2.3339517E0,0E0,2.4232087E0,0E0,2.6166098E0,4.3774447E0,0E0,0E0,0E0,4.9452524E0,0E0,3.4817736E0,1.7561526E0,0E0,0E0,3.41463E0,0E0,0E0,0E0,0E0],"parents":[2147483647,0,0,1,1,2,2,3,3,5,5,7,7,8,8,12,12,14,14,15,15,18,18],"right_children":[2,4,6,8,-1,10,-1,12,14,-1,-1,-1,16,-1,18,20,-1,-1,22,-1,-1,-1,-1],"split_conditions":[1E0,9.5E-1,8.7E1,7.5E1,-2.8310183E-2,1.43E2,4.4128638E-2,3.5E1,3.6E1,-1.3009182E-2,1.7046599E-2,-2.5032941E-2,1.7E1,2.406614E-2,2.9E1,1.81E1,2.5147645E-2,2.3961632E-2,5E1,-2.466905E-4,-2.879618E-2,-6.9522844E-3,1.883887E-2],"split_indices":[3,18,0,0,0,7,0,11,8,0,0,0,16,0,13,14,0,0,11,0,0,0,0],"split_type":[0,0,0,0,0,0,0,0,0,0,0,0,0,0,0,0,0,0,0,0,0,0,0],"sum_hessian":[2.5877966E2,2.222124E2,3.6567257E1,2.0484473E2,1.7367676E1,2.484286E1,1.1724397E1,4.9888817E1,1.549559E2,1.2460745E1,1.2382114E1,1.8873537E1,3.1015278E1,1.7845634E1,1.3711028E2,2.0714474E1,1.0300805E1,1.1148834E1,1.2596144E2,1.0014047E1,1.0700427E1,1.1246004E2,1.3501404E1],"tree_param":{"num_deleted":"0","num_feature":"19","num_nodes":"23","size_leaf_vector":"1"}},{"base_weights":[3.720846E-2,1.7157415E-1,-2.1655788E-1,7.218712E-2,7.5570536E-1,-3.8426626E-1,7.407069E-2,3.0903158E-1,-1.2873074E-1,5.6704666E-2,1.063528E-2,-1.18240036E-1,-5.25422E-1,2.897966E-1,-1.7223474E-2,4.0457238E-2,5.7850516E-1,-4.1344637E-1,1.106036E-1,-2.7733505E-2,1.6083684E-2,-3.435285E-2,-1.3849849E-2,3.574362E-2,-6.3466616E-3,2.0724952E-2,-1.7864357E-1,5.109737E-2,3.2006693E-3,-5.45741E-1,-4.579245E-3,-1.457979E-2,4.0844136E-1,8.460203E-3,-2.7921263E-2,-1.6766047E-2,-3.5636425E-2,4.1380677E-2,-1.0583128E-2],"categories":[],"categories_nodes":[],"categories_segments":[],"categories_sizes":[],"default_left":[0,0,0,0,0,0,0,0,0,0,0,0,0,0,0,0,0,0,0,0,0,0,0,0,0,0,0,0,0,0,0,0,0,0,0,0,0,0,0],"id":35,"left_children":[1,3,5,7,9,11,13,15,17,-1,-1,19,21,23,-1,25,27,29,31,-1,-1,-1,-1,-1,-1,-1,33,-1,-1,35,-1,-1,37,-1,-1,-1,-1,-1,-1],"loss_changes":[9.01774E0,9.975004E0,4.494113E0,7.117998E0,4.8983603E0,2.1255054E0,3.2024446E0,4.938742E0,5.577654E0,0E0,0E0,4.303592E0,1.3263607E0,4.203703E0,0E0,2.9763193E0,7.7255754E0,1.5377192E0,5.4970827E0,0E0,0E0,0E0,0E0,0E0,0E0,0E0,3.1370509E0,0E0,0E0,6.824436E-1,0E0,0E0,6.9880877E0,0E0,0E0,0E0,0E0,0E0,0E0],"parents":[2147483647,0,0,1,1,2,2,3,3,4,4,5,5,6,6,7,7,8,8,11,11,12,12,13,13,15,15,16,16,17,17,18,18,26,26,29,29,32,32],"right_children":[2,4,6,8,10,12,14,16,18,-1,-1,20,22,24,-1,26,28,30,32,-1,-1,-1,-1,-1,-1,-1,34,-1,-1,36,-1,-1,38,-1,-1,-1,-1,-1,-1],"split_conditions":[1.48E1,2.5E1,4.7E1,3.3E1,2.83E1,5.7E1,1E0,2.7E1,3.9E1,5.6704666E-2,1.063528E-2,1.64E1,7E-1,1.66E1,-1.7223474E-2,3.7E1,9E0,1.79E1,1.34E1,-2.7733505E-2,1.6083684E-2,-3.435285E-2,-1.3849849E-2,3.574362E-2,-6.3466616E-3,2.0724952E-2,8.4E1,5.109737E-2,3.2006693E-3,1.39E2,-4.579245E-3,-1.457979E-2,2.13E1,8.460203E-3,-2.7921263E-2,-1.6766047E-2,-3.5636425E-2,4.1380677E-2,-1.0583128E-2],"split_indices":[15,14,9,11,14,8,5,11,11,0,0,15,17,15,0,8,16,10,10,0,0,0,0,0,0,0,0,0,0,7,0,0,14,0,0,0,0,0,0],"split_type":[0,0,0,0,0,0,0,0,0,0,0,0,0,0,0,0,0,0,0,0,0,0,0,0,0,0,0,0,0,0,0,0,0,0,0,0,0,0,0],"sum_hessian":[2.6237964E2,1.7175938E2,9.062027E1,1.477449E2,2.401448E1,5.7257442E1,3.3362827E1,6.756287E1,8.018204E1,1.3510886E1,1.0503594E1,2.04862E1,3.6771244E1,2.221848E1,1.114435E1,3.4413918E1,3.3148945E1,3.6287003E1,4.389503E1,1.0152869E1,1.0333331E1,2.1207294E1,1.556395E1,1.0644929E1,1.1573549E1,1.238272E1,2.2031199E1,1.7274052E1,1.5874892E1,2.5223724E1,1.1063277E1,1.8684494E1,2.5210539E1,1.1788452E1,1.0242746E1,1.2491419E1,1.27323065E1,1.4842682E1,1.0367857E1],"tree_param":{"num_deleted":"0","num_feature":"19","num_nodes":"39","size_leaf_vector":"1"}},{"base_weights":[1.9085746E-2,-1.6611792E-2,3.1017441E-2,-6.265448E-2,3.737696E-1,-2.130272E-1,4.7978744E-2,-6.398505E-3,4.000847E-2,-3.107945E-1,2.555382E-2,3.2231707E-2,-3.4502026E-2,-9.336594E-2,-5.413064E-1,-9.216912E-2,1.5609585E-2,-2.3372183E-2,7.119863E-3,-1.2631926E-2,-4.0116746E-2,-7.95745E-3,1.2634481E-2],"categories":[],"categories_nodes":[],"categories_segments":[],"categories_sizes":[],"default_left":[0,0,0,0,0,0,0,0,0,0,0,0,0,0,0,0,0,0,0,0,0,0,0],"id":36,"left_children":[1,3,-1,5,7,9,11,-1,-1,13,-1,-1,15,17,19,21,-1,-1,-1,-1,-1,-1,-1],"loss_changes":[5.427364E0,4.32308E0,0E0,3.584219E0,5.532343E0,6.61843E0,6.153492E0,0E0,0E0,4.0098157E0,0E0,0E0,2.2360857E0,3.8498971E0,2.7446318E0,2.2445617E0,0E0,0E0,0E0,0E0,0E0,0E0,0E0],"parents":[2147483647,0,0,1,1,3,3,4,4,5,5,6,6,9,9,12,12,13,13,14,14,15,15],"right_children":[2,4,-1,6,8,10,12,-1,-1,14,-1,-1,16,18,20,22,-1,-1,-1,-1,-1,-1,-1],"split_conditions":[9.1E1,4E0,3.1017441E-2,4.3E1,1.33E1,1.81E1,1.01E1,-6.398505E-3,4.000847E-2,1.8E1,2.555382E-2,3.2231707E-2,2E1,1.07E1,1.04E1,1.92E2,1.5609585E-2,-2.3372183E-2,7.119863E-3,-1.2631926E-2,-4.0116746E-2,-7.95745E-3,1.2634481E-2],"split_indices":[0,2,0,9,14,10,10,0,0,16,0,0,16,15,10,7,0,0,0,0,0,0,0],"split_type":[0,0,0,0,0,0,0,0,0,0,0,0,0,0,0,0,0,0,0,0,0,0,0],"sum_hessian":[2.5138338E2,2.3821284E2,1.3170542E1,2.1383235E2,2.4380487E1,9.024533E1,1.2358702E2,1.1522261E1,1.2858228E1,8.001291E1,1.0232427E1,1.4181838E1,1.0940518E2,4.1897987E1,3.811492E1,9.443204E1,1.4973148E1,1.5817769E1,2.6080217E1,1.9033688E1,1.9081232E1,7.9524895E1,1.4907139E1],"tree_param":{"num_deleted":"0","num_feature":"19","num_nodes":"23","size_leaf_vector":"1"}},{"base_weights":[3.000617E-2,-6.254116E-2,2.4027686E-1,6.956954E-2,-1.9163662E-1,3.9685603E-2,1.2400693E-1,3.7370473E-1,-1.0578166E-1,8.599231E-2,-3.4984133E-1,2.590063E-1,-1.2462049E-2,3.3874374E-2,-8.4713455E-3,8.620708E-2,-2.671588E-2,3.2275176E-1,-1.9084511E-2,-5.802411E-1,-5.6955695E-2,-1.8336298E-3,5.332455E-1,-2.0417015E-1,2.9035753E-2,5.210018E-3,2.6214346E-2,-1.7381236E-2,-4.271425E-2,1.6936665E-2,-1.7216736E-2,1.9765442E-2,-2.1915618E-2,4.7233943E-2,4.139639E-3,-2.7558956E-2,3.3142958E-3],"categories":[],"categories_nodes":[],"categories_segments":[],"categories_sizes":[],"default_left":[0,0,0,0,0,0,0,0,0,0,0,0,0,0,0,0,0,0,0,0,0,0,0,0,0,0,0,0,0,0,0,0,0,0,0,0,0],"id":37,"left_children":[1,3,5,7,9,-1,11,13,15,17,19,21,-1,-1,-1,23,-1,25,-1,27,29,31,33,35,-1,-1,-1,-1,-1,-1,-1,-1,-1,-1,-1,-1,-1],"loss_changes":[4.7615814E0,2.9154282E0,4.7116714E0,4.5636916E0,3.8218656E0,0E0,3.2369344E0,5.269927E0,4.5372505E0,3.681968E0,3.6912017E0,3.343421E0,0E0,0E0,0E0,5.655513E0,0E0,9.090717E-1,0E0,1.6652384E0,3.0059195E0,4.4972925E0,4.1439066E0,2.3859959E0,0E0,0E0,0E0,0E0,0E0,0E0,0E0,0E0,0E0,0E0,0E0,0E0,0E0],"parents":[2147483647,0,0,1,1,2,2,3,3,4,4,6,6,7,7,8,8,9,9,10,10,11,11,15,15,17,17,19,19,20,20,21,21,22,22,23,23],"right_children":[2,4,6,8,10,-1,12,14,16,18,20,22,-1,-1,-1,24,-1,26,-1,28,30,32,34,36,-1,-1,-1,-1,-1,-1,-1,-1,-1,-1,-1,-1,-1],"split_conditions":[1E0,5.7E1,1.5E1,3E0,5.7E-1,3.9685603E-2,5.9E-1,4.4E1,1.9E1,5.6E1,6.4E1,5.4E1,-1.2462049E-2,3.3874374E-2,-8.4713455E-3,2.2E1,-2.671588E-2,2.17E1,-1.9084511E-2,2.37E1,2.3E1,4.2E1,7.1E1,8E1,2.9035753E-2,5.210018E-3,2.6214346E-2,-1.7381236E-2,-4.271425E-2,1.6936665E-2,-1.7216736E-2,1.9765442E-2,-2.1915618E-2,4.7233943E-2,4.139639E-3,-2.7558956E-2,3.3142958E-3],"split_indices":[6,8,12,2,17,0,18,11,10,9,8,9,0,0,0,14,0,14,0,14,12,9,9,0,0,0,0,0,0,0,0,0,0,0,0,0,0],"split_type":[0,0,0,0,0,0,0,0,0,0,0,0,0,0,0,0,0,0,0,0,0,0,0,0,0,0,0,0,0,0,0,0,0,0,0,0,0],"sum_hessian":[2.4291351E2,1.6916206E2,7.375145E1,8.3832565E1,8.5329506E1,1.1792702E1,6.1958748E1,3.024442E1,5.3588142E1,3.1139732E1,5.4189777E1,4.5726196E1,1.6232552E1,1.9237299E1,1.1007119E1,3.7559788E1,1.6028357E1,2.087956E1,1.0260171E1,2.978117E1,2.4408607E1,2.3944723E1,2.1781471E1,2.4034027E1,1.3525761E1,1.0744692E1,1.0134869E1,1.7335117E1,1.2446053E1,1.0193959E1,1.4214647E1,1.2586691E1,1.1358032E1,1.0810359E1,1.0971113E1,1.0072515E1,1.39615135E1],"tree_param":{"num_deleted":"0","num_feature":"19","num_nodes":"37","size_leaf_vector":"1"}},{"base_weights":[-1.1072586E-2,-7.000847E-2,3.3631524E-1,2.8004438E-2,-2.698766E-1,5.9395444E-1,-2.6536882E-3,-3.0589223E-2,8.786074E-2,-3.8646817E-1,1.39443E-2,4.076359E-2,1.656398E-2,2.0456783E-2,3.27329E-2,-2.6066464E-1,-3.5017397E-2,2.2814777E-1,-1.5098147E-1,-4.3401012E-1,1.2031558E-2,-9.592826E-3,2.0215735E-2,9.8205935E-3,-1.2931481E-2,-8.622832E-3,-4.223605E-2],"categories":[],"categories_nodes":[],"categories_segments":[],"categories_sizes":[],"default_left":[0,0,0,0,0,0,0,0,0,0,0,0,0,0,0,0,0,0,0,0,0,0,0,0,0,0,0],"id":38,"left_children":[1,3,5,7,9,11,-1,-1,13,15,-1,-1,-1,17,-1,19,-1,21,23,25,-1,-1,-1,-1,-1,-1,-1],"loss_changes":[5.2650867E0,4.3115664E0,3.774166E0,5.733832E0,4.739079E0,1.0398865E0,0E0,0E0,5.201806E0,2.1914253E0,0E0,0E0,0E0,4.4151397E0,0E0,3.9723544E0,0E0,4.22342E0,2.5937395E0,3.4455833E0,0E0,0E0,0E0,0E0,0E0,0E0,0E0],"parents":[2147483647,0,0,1,1,2,2,3,3,4,4,5,5,8,8,9,9,13,13,15,15,17,17,18,18,19,19],"right_children":[2,4,6,8,10,12,-1,-1,14,16,-1,-1,-1,18,-1,20,-1,22,24,26,-1,-1,-1,-1,-1,-1,-1],"split_conditions":[1E0,1.48E1,5.6E-1,2.2E1,1.47E2,1.41E2,-2.6536882E-3,-3.0589223E-2,5E1,7.7E-1,1.39443E-2,4.076359E-2,1.656398E-2,1.29E2,3.27329E-2,6.8E-1,-3.5017397E-2,8.9E0,7.1E0,5.8E-1,1.2031558E-2,-9.592826E-3,2.0215735E-2,9.8205935E-3,-1.2931481E-2,-8.622832E-3,-4.223605E-2],"split_indices":[3,15,18,9,7,7,0,0,11,17,0,0,0,7,0,17,0,15,15,17,0,0,0,0,0,0,0],"split_type":[0,0,0,0,0,0,0,0,0,0,0,0,0,0,0,0,0,0,0,0,0,0,0,0,0,0,0],"sum_hessian":[2.5501457E2,2.1870822E2,3.6306347E1,1.473228E2,7.138542E1,2.1533415E1,1.4772932E1,1.1814944E1,1.3550786E2,5.912031E1,1.2265112E1,1.0544984E1,1.098843E1,1.2203183E2,1.3476025E1,4.351135E1,1.5608961E1,5.503193E1,6.69999E1,3.2431076E1,1.1080273E1,1.6235462E1,3.8796467E1,1.5654951E1,5.1344948E1,2.0680798E1,1.1750279E1],"tree_param":{"num_deleted":"0","num_feature":"19","num_nodes":"27","size_leaf_vector":"1"}},{"base_weights":[-4.62762E-2,2.3890048E-2,-8.214705E-2,-1.2687762E-1,1.5229496E-1,-3.0670298E-2,-8.744851E-2,-1.3739503E-2,3.9583015E-1,5.8371834E-3,-2.9123572E-1,-2.66374E-3,4.5747403E-2,-5.9939217E-2,2.4314612E-2,-1.4418462E-1,-3.1060103E-2,1.0248413E-3,-1.8813228E-2,-1.8535225E-2,1.7571403E-2],"categories":[],"categories_nodes":[],"categories_segments":[],"categories_sizes":[],"default_left":[0,0,0,0,0,0,0,0,0,0,0,0,0,0,0,0,0,0,0,0,0],"id":39,"left_children":[1,-1,3,5,7,-1,9,-1,11,13,15,-1,-1,17,-1,19,-1,-1,-1,-1,-1],"loss_changes":[4.950364E0,0E0,2.5923452E0,3.9095013E0,4.2449856E0,0E0,3.6568608E0,0E0,6.0487137E0,4.228356E0,2.8409595E0,0E0,0E0,3.0041194E0,0E0,4.9666824E0,0E0,0E0,0E0,0E0,0E0],"parents":[2147483647,0,0,2,2,3,3,4,4,6,6,8,8,9,9,10,10,13,13,15,15],"right_children":[2,-1,4,6,8,-1,10,-1,12,14,16,-1,-1,18,-1,20,-1,-1,-1,-1,-1],"split_conditions":[1.4E1,2.3890048E-2,5.7E1,2.3E-1,2.7E-1,-3.0670298E-2,4.5E1,-1.3739503E-2,1E0,1E0,8.2E-1,-2.66374E-3,4.5747403E-2,4.6E1,2.4314612E-2,2.44E1,-3.1060103E-2,1.0248413E-3,-1.8813228E-2,-1.8535225E-2,1.7571403E-2],"split_indices":[12,0,13,18,17,0,11,0,6,3,18,0,0,13,0,14,0,0,0,0,0],"split_type":[0,0,0,0,0,0,0,0,0,0,0,0,0,0,0,0,0,0,0,0,0],"sum_hessian":[2.602421E2,1.5882143E1,2.4435995E2,2.0559254E2,3.87674E1,1.4321223E1,1.9127133E2,1.4031742E1,2.4735655E1,1.3187538E2,5.9395954E1,1.3743287E1,1.0992368E1,1.16764984E2,1.5110393E1,4.2079838E1,1.7316116E1,9.3838646E1,2.2926336E1,2.9053127E1,1.30267105E1],"tree_param":{"num_deleted":"0","num_feature":"19","num_nodes":"21","size_leaf_vector":"1"}},{"base_weights":[2.3683676E-2,-2.8649163E-2,3.1648538E-1,-7.355444E-2,2.0044995E-2,5.113249E-1,-1.0191599E-2,-3.6846068E-2,-2.8140306E-2,-2.4179125E-3,4.2168133E-2,1.174834E-2,-3.026679E-1,2.5092512E-1,-8.772299E-2,-3.007947E-2,-3.4005053E-3,-3.687568E-3,2.9851703E-2,1.8500812E-2,-7.357333E-3],"categories":[],"categories_nodes":[],"categories_segments":[],"categories_sizes":[],"default_left":[0,0,0,0,0,0,0,0,0,0,0,0,0,0,0,0,0,0,0,0,0],"id":40,"left_children":[1,3,5,7,-1,9,-1,11,-1,-1,-1,13,15,17,19,-1,-1,-1,-1,-1,-1],"loss_changes":[3.9036708E0,4.206385E0,4.0196686E0,3.515385E0,0E0,5.3156967E0,0E0,2.3832228E0,0E0,0E0,0E0,3.750372E0,1.9588664E0,5.245799E0,3.0851724E0,0E0,0E0,0E0,0E0,0E0,0E0],"parents":[2147483647,0,0,1,1,2,2,3,3,5,5,7,7,11,11,12,12,13,13,14,14],"right_children":[2,4,6,8,-1,10,-1,12,-1,-1,-1,14,16,18,20,-1,-1,-1,-1,-1,-1],"split_conditions":[1E0,2.18E1,2.11E1,9.2E-1,2.0044995E-2,8.2E1,-1.0191599E-2,1.82E2,-2.8140306E-2,-2.4179125E-3,4.2168133E-2,1.09E1,4.1E1,2.2E1,3.7E1,-3.007947E-2,-3.4005053E-3,-3.687568E-3,2.9851703E-2,1.8500812E-2,-7.357333E-3],"split_indices":[3,10,10,17,0,0,0,7,0,0,0,10,13,14,8,0,0,0,0,0,0],"split_type":[0,0,0,0,0,0,0,0,0,0,0,0,0,0,0,0,0,0,0,0,0],"sum_hessian":[2.5316481E2,2.1554272E2,3.7622086E1,1.9589276E2,1.9649965E1,2.7384785E1,1.0237302E1,1.8322105E2,1.2671699E1,1.0515018E1,1.6869764E1,1.5571152E2,2.7509539E1,4.5290016E1,1.1042151E2,1.14104805E1,1.6099058E1,2.377457E1,2.1515444E1,1.2087213E1,9.833429E1],"tree_param":{"num_deleted":"0","num_feature":"19","num_nodes":"21","size_leaf_vector":"1"}},{"base_weights":[-2.9397205E-2,-6.763177E-2,2.412848E-2,-1.4097935E-2,-3.055277E-1,-1.9353077E-1,4.490982E-2,-5.0392914E-1,9.690045E-3,1.6766662E-2,-4.364448E-1,3.8252383E-1,-2.763613E-2,-1.5727486E-2,-3.600925E-2,-7.996496E-3,1.31529365E-2,-3.750254E-2,-4.565598E-3,1.101019E-3,3.785281E-2,2.5169268E-2,-8.3017856E-2,-7.3785023E-3,1.4772303E-2],"categories":[],"categories_nodes":[],"categories_segments":[],"categories_sizes":[],"default_left":[0,0,0,0,0,0,0,0,0,0,0,0,0,0,0,0,0,0,0,0,0,0,0,0,0],"id":41,"left_children":[1,3,-1,5,7,9,11,13,-1,15,17,19,21,-1,-1,-1,-1,-1,-1,-1,-1,-1,23,-1,-1],"loss_changes":[5.1178927E0,3.0854416E0,0E0,2.1166635E0,4.5079E0,2.5338585E0,3.6999705E0,1.0895996E0,0E0,1.2376194E0,2.4194689E0,3.5897593E0,3.7156465E0,0E0,0E0,0E0,0E0,0E0,0E0,0E0,0E0,0E0,2.8282962E0,0E0,0E0],"parents":[2147483647,0,0,1,1,3,3,4,4,5,5,6,6,7,7,9,9,10,10,11,11,12,12,22,22],"right_children":[2,4,-1,6,8,10,12,14,-1,16,18,20,22,-1,-1,-1,-1,-1,-1,-1,-1,-1,24,-1,-1],"split_conditions":[9E1,1.67E1,2.412848E-2,3.7E1,3E0,5.3E1,1.15E1,2.51E1,9.690045E-3,2.11E1,6.1E1,5E-1,1.4E1,-1.5727486E-2,-3.600925E-2,-7.996496E-3,1.31529365E-2,-3.750254E-2,-4.565598E-3,1.101019E-3,3.785281E-2,2.5169268E-2,7E1,-7.3785023E-3,1.4772303E-2],"split_indices":[0,15,0,9,2,8,10,14,0,14,8,18,12,0,0,0,0,0,0,0,0,0,9,0,0],"split_type":[0,0,0,0,0,0,0,0,0,0,0,0,0,0,0,0,0,0,0,0,0,0,0,0,0],"sum_hessian":[2.5878543E2,2.4160951E2,1.7175922E1,1.9809203E2,4.351749E1,4.845837E1,1.4963365E2,3.113658E1,1.2380912E1,2.6471891E1,2.1986477E1,2.5710302E1,1.2392335E2,1.7908384E1,1.3228196E1,1.5617865E1,1.0854028E1,1.0904683E1,1.1081794E1,1.3640005E1,1.2070297E1,1.0939716E1,1.1298363E2,9.704189E1,1.5941739E1],"tree_param":{"num_deleted":"0","num_feature":"19","num_nodes":"25","size_leaf_vector":"1"}},{"base_weights":[-3.5753876E-2,-5.2197543E-3,-2.8611038E-2,-4.302352E-2,3.548199E-1,1.917149E-1,-9.2514716E-2,-6.8139504E-3,3.8032673E-2,-3.406565E-2,3.4011852E-2,-2.9807448E-1,-1.4497911E-2,-1.5641836E-2,1.9558506E-2,-6.833519E-2,-4.9299526E-1,-3.685779E-1,7.8608E-2,1.0359383E-2,-1.9896016E-2,-3.7726894E-2,-5.6320005E-3,-3.7877396E-2,-3.3677544E-3,-1.2686863E-2,1.0783971E-2],"categories":[],"categories_nodes":[],"categories_segments":[],"categories_sizes":[],"default_left":[0,0,0,0,0,0,0,0,0,0,0,0,0,0,0,0,0,0,0,0,0,0,0,0,0,0,0],"id":42,"left_children":[1,3,-1,5,7,9,11,-1,-1,13,-1,15,17,-1,-1,19,21,23,25,-1,-1,-1,-1,-1,-1,-1,-1],"loss_changes":[4.246858E0,3.3701E0,0E0,2.6195068E0,4.7931566E0,4.360241E0,2.972679E0,0E0,0E0,3.4231634E0,0E0,2.25101E0,4.499702E0,0E0,0E0,2.314424E0,2.644752E0,3.2777781E0,4.983855E0,0E0,0E0,0E0,0E0,0E0,0E0,0E0,0E0],"parents":[2147483647,0,0,1,1,3,3,4,4,5,5,6,6,9,9,11,11,12,12,15,15,16,16,17,17,18,18],"right_children":[2,4,-1,6,8,10,12,-1,-1,14,-1,16,18,-1,-1,20,22,24,26,-1,-1,-1,-1,-1,-1,-1,-1],"split_conditions":[9.3E-1,4E0,-2.8611038E-2,1.36E1,1.4E1,1.14E1,1.9E1,-6.8139504E-3,3.8032673E-2,5.1E1,3.4011852E-2,3.3E1,2E0,-1.5641836E-2,1.9558506E-2,1.74E1,5.2E1,4.3E1,2.06E1,1.0359383E-2,-1.9896016E-2,-3.7726894E-2,-5.6320005E-3,-3.7877396E-2,-3.3677544E-3,-1.2686863E-2,1.0783971E-2],"split_indices":[17,2,0,14,14,14,12,0,0,13,0,11,2,0,0,10,9,9,14,0,0,0,0,0,0,0,0],"split_type":[0,0,0,0,0,0,0,0,0,0,0,0,0,0,0,0,0,0,0,0,0,0,0,0,0,0,0],"sum_hessian":[2.584447E2,2.4548228E2,1.2962403E1,2.2295297E2,2.2529312E1,3.8321083E1,1.846319E2,1.0494329E1,1.2034982E1,2.6844578E1,1.1476505E1,5.0019413E1,1.3461247E2,1.6374378E1,1.04702E1,2.3579046E1,2.6440365E1,2.7410849E1,1.0720163E2,1.304511E1,1.0533936E1,1.5084252E1,1.1356113E1,1.130184E1,1.610901E1,3.1054743E1,7.614689E1],"tree_param":{"num_deleted":"0","num_feature":"19","num_nodes":"27","size_leaf_vector":"1"}},{"base_weights":[3.1274684E-2,-2.0322625E-1,1.2454688E-1,1.7834987E-2,-3.7690404E-1,-9.762539E-3,2.620156E-1,1.6426532E-2,-1.1906511E-2,-2.6966665E-2,-8.828183E-3,2.1964366E-2,-7.966183E-2,3.695052E-2,1.6744545E-1,-3.1749165E-1,1.8140174E-1,3.0174267E-1,-2.626822E-2,-9.248676E-2,-3.661769E-2,-5.8259754E-3,4.1932684E-1,3.8645647E-2,1.8418178E-1,-1.4970789E-2,1.3007693E-2,6.477418E-3,3.381407E-2,5.3039234E-4,3.3405297E-2],"categories":[],"categories_nodes":[],"categories_segments":[],"categories_sizes":[],"default_left":[0,0,0,0,0,0,0,0,0,0,0,0,0,0,0,0,0,0,0,0,0,0,0,0,0,0,0,0,0,0,0],"id":43,"left_children":[1,3,5,7,9,11,13,-1,-1,-1,-1,-1,15,-1,17,19,21,23,-1,25,-1,-1,27,-1,29,-1,-1,-1,-1,-1,-1],"loss_changes":[5.480173E0,2.7460358E0,3.308347E0,2.6506882E0,1.2064738E0,2.9078927E0,3.869268E0,0E0,0E0,0E0,0E0,0E0,5.027549E0,0E0,7.152074E0,3.8761835E0,2.7987998E0,3.38029E0,0E0,2.1603532E0,0E0,0E0,1.5346532E0,0E0,4.3783336E0,0E0,0E0,0E0,0E0,0E0,0E0],"parents":[2147483647,0,0,1,1,2,2,3,3,4,4,5,5,6,6,12,12,14,14,15,15,16,16,17,17,19,19,22,22,24,24],"right_children":[2,4,6,8,10,12,14,-1,-1,-1,-1,-1,16,-1,18,20,22,24,-1,26,-1,-1,28,-1,30,-1,-1,-1,-1,-1,-1],"split_conditions":[3.7E1,1.33E1,8.3E1,1.49E2,6.7E-1,4.2E1,3.2E1,1.6426532E-2,-1.1906511E-2,-2.6966665E-2,-8.828183E-3,2.1964366E-2,1.43E2,3.695052E-2,6.2E-1,1.24E2,1.9E1,3E-1,-2.626822E-2,1.11E2,-3.661769E-2,-5.8259754E-3,5.3E1,3.8645647E-2,5.2E-1,-1.4970789E-2,1.3007693E-2,6.477418E-3,3.381407E-2,5.3039234E-4,3.3405297E-2],"split_indices":[9,15,0,7,17,9,13,0,0,0,0,0,7,0,18,7,12,17,0,7,0,0,9,0,18,0,0,0,0,0,0],"split_type":[0,0,0,0,0,0,0,0,0,0,0,0,0,0,0,0,0,0,0,0,0,0,0,0,0,0,0,0,0,0,0],"sum_hessian":[2.4839456E2,7.034851E1,1.7804605E2,3.1346828E1,3.9001682E1,9.052777E1,8.751828E1,1.4031554E1,1.7315273E1,2.0604313E1,1.839737E1,1.148174E1,7.9046036E1,1.3353123E1,7.416516E1,4.125052E1,3.7795513E1,6.2595787E1,1.1569369E1,2.7537952E1,1.3712568E1,1.7008432E1,2.078708E1,1.1386291E1,5.1209496E1,1.7449528E1,1.0088425E1,1.04764805E1,1.0310599E1,3.8442764E1,1.2766733E1],"tree_param":{"num_deleted":"0","num_feature":"19","num_nodes":"31","size_leaf_vector":"1"}},{"base_weights":[-7.6409043E-3,-9.5069E-2,2.3196232E-1,-4.3611046E-2,-4.9202597E-1,3.9988995E-2,1.0754864E-1,2.6301606E-2,-9.64035E-2,-3.6778573E-2,-1.0392279E-2,-1.7668754E-2,2.47202E-1,-4.8380473E-1,-3.4707688E-2,5.1347053E-1,-1.8924795E-2,-1.3865918E-2,-3.2222245E-2,-1.3495746E-1,2.807288E-1,5.3283554E-2,-3.6256262E-3,-1.5526086E-2,1.5796417E-2,3.1175595E-3,-2.2443904E-2,3.299476E-2,-5.7228627E-3],"categories":[],"categories_nodes":[],"categories_segments":[],"categories_sizes":[],"default_left":[0,0,0,0,0,0,0,0,0,0,0,0,0,0,0,0,0,0,0,0,0,0,0,0,0,0,0,0,0],"id":44,"left_children":[1,3,5,7,9,-1,11,-1,13,-1,-1,-1,15,17,19,21,23,-1,-1,25,27,-1,-1,-1,-1,-1,-1,-1,-1],"loss_changes":[5.387979E0,3.8265734E0,4.772229E0,5.098821E0,1.3365822E0,0E0,3.7928443E0,0E0,3.675209E0,0E0,0E0,0E0,3.1820562E0,5.226121E-1,4.28563E0,7.3299255E0,2.3784952E0,0E0,0E0,6.38339E0,4.9783154E0,0E0,0E0,0E0,0E0,0E0,0E0,0E0,0E0],"parents":[2147483647,0,0,1,1,2,2,3,3,4,4,6,6,8,8,12,12,13,13,14,14,15,15,16,16,19,19,20,20],"right_children":[2,4,6,8,10,-1,12,-1,14,-1,-1,-1,16,18,20,22,24,-1,-1,26,28,-1,-1,-1,-1,-1,-1,-1,-1],"split_conditions":[5.1E1,4.6E1,1.05E2,7.8E0,3.5E-1,3.9988995E-2,1.19E2,2.6301606E-2,9.6E0,-3.6778573E-2,-1.0392279E-2,-1.7668754E-2,1.64E2,5.2E-1,1.47E2,6.1E1,5.9E1,-1.3865918E-2,-3.2222245E-2,1.19E2,4.7E1,5.3283554E-2,-3.6256262E-3,-1.5526086E-2,1.5796417E-2,3.1175595E-3,-2.2443904E-2,3.299476E-2,-5.7228627E-3],"split_indices":[13,13,7,15,18,0,7,0,15,0,0,0,7,18,7,13,13,0,0,7,11,0,0,0,0,0,0,0,0],"split_type":[0,0,0,0,0,0,0,0,0,0,0,0,0,0,0,0,0,0,0,0,0,0,0,0,0,0,0,0,0],"sum_hessian":[2.5515392E2,1.8738339E2,6.777053E1,1.6686267E2,2.0520721E1,1.1204659E1,5.6565872E1,1.3392309E1,1.5347035E2,1.0195058E1,1.03256645E1,1.2797512E1,4.376836E1,2.0143463E1,1.3332689E2,2.1413769E1,2.2354593E1,1.0006925E1,1.01365385E1,1.01607025E2,3.1719866E1,1.0603226E1,1.0810543E1,1.19879265E1,1.0366667E1,6.2883934E1,3.872309E1,1.5846195E1,1.5873671E1],"tree_param":{"num_deleted":"0","num_feature":"19","num_nodes":"29","size_leaf_vector":"1"}},{"base_weights":[-8.978783E-3,-6.0173903E-2,2.6556462E-1,1.2773307E-1,-1.8972535E-1,3.6782637E-2,4.492074E-2,-2.3712492E-2,2.0932527E-1,-3.4771092E-2,-1.3373971E-1,-9.122677E-3,1.5570126E-2,3.520673E-2,4.899111E-2,-7.62574E-2,-3.0619323E-2,-2.302824E-1,3.5980925E-1,-3.621176E-1,1.943105E-3,3.7731372E-3,-1.8264644E-2,3.6697853E-3,2.729008E-2,-2.6246382E-2,-7.901724E-3,-8.793314E-3,1.2354673E-2],"categories":[],"categories_nodes":[],"categories_segments":[],"categories_sizes":[],"default_left":[0,0,0,0,0,0,0,0,0,0,0,0,0,0,0,0,0,0,0,0,0,0,0,0,0,0,0,0,0],"id":45,"left_children":[1,3,5,7,9,11,-1,-1,13,-1,15,-1,-1,-1,17,19,-1,21,23,25,27,-1,-1,-1,-1,-1,-1,-1,-1],"loss_changes":[3.733716E0,5.471159E0,6.0126534E0,4.6135435E0,3.6680179E0,1.966084E0,0E0,0E0,6.441752E0,0E0,3.2780664E0,0E0,0E0,0E0,5.527918E0,2.4379222E0,0E0,1.4166296E0,1.5622156E0,6.953566E-1,3.8184412E0,0E0,0E0,0E0,0E0,0E0,0E0,0E0,0E0],"parents":[2147483647,0,0,1,1,2,2,3,3,4,4,5,5,8,8,10,10,14,14,15,15,17,17,18,18,19,19,20,20],"right_children":[2,4,6,8,10,12,-1,-1,14,-1,16,-1,-1,-1,18,20,-1,22,24,26,28,-1,-1,-1,-1,-1,-1,-1,-1],"split_conditions":[1E0,1.1E1,2.2E1,5E0,9.6E0,1E0,4.492074E-2,-2.3712492E-2,4.1E1,-3.4771092E-2,3.08E1,-9.122677E-3,1.5570126E-2,3.520673E-2,5.3E1,9.5E1,-3.0619323E-2,2.4E1,1.49E1,1.31E1,2.28E1,3.7731372E-3,-1.8264644E-2,3.6697853E-3,2.729008E-2,-2.6246382E-2,-7.901724E-3,-8.793314E-3,1.2354673E-2],"split_indices":[3,16,12,15,15,5,0,0,8,0,14,0,0,0,9,7,0,9,14,10,14,0,0,0,0,0,0,0,0],"split_type":[0,0,0,0,0,0,0,0,0,0,0,0,0,0,0,0,0,0,0,0,0,0,0,0,0,0,0,0,0],"sum_hessian":[2.635081E2,2.227516E2,4.075649E1,9.090832E1,1.3184328E2,3.0711926E1,1.0044563E1,1.0276489E1,8.063183E1,1.2003042E1,1.1984024E2,1.726469E1,1.3447236E1,1.890309E1,6.172874E1,1.0802631E2,1.1813929E1,3.2650772E1,2.9077969E1,2.242427E1,8.560204E1,1.0136556E1,2.2514217E1,1.1997452E1,1.7080517E1,1.1598935E1,1.0825335E1,4.9779335E1,3.582271E1],"tree_param":{"num_deleted":"0","num_feature":"19","num_nodes":"29","size_leaf_vector":"1"}},{"base_weights":[4.222826E-2,-3.568078E-3,4.510115E-1,-4.8031285E-2,3.7965164E-1,3.7461028E-2,6.1738016E-3,1.1478486E-2,-2.8900433E-1,-1.4003224E-3,3.446019E-2,-2.0741148E-2,4.4151485E-2,-2.9557705E-2,-1.1542114E-1,2.1907683E-1,-4.079935E-2,2.1327434E-2,-2.341802E-2,2.1235803E-2,2.1141364E-4,-1.6600737E-2,5.889754E-3],"categories":[],"categories_nodes":[],"categories_segments":[],"categories_sizes":[],"default_left":[0,0,0,0,0,0,0,0,0,0,0,0,0,0,0,0,0,0,0,0,0,0,0],"id":46,"left_children":[1,3,5,7,9,-1,-1,11,13,-1,-1,-1,15,-1,17,19,21,-1,-1,-1,-1,-1,-1],"loss_changes":[4.729112E0,3.9045055E0,2.3931499E0,2.9467187E0,3.0256922E0,0E0,0E0,2.3244119E0,2.0657914E0,0E0,0E0,0E0,2.307549E0,0E0,5.380614E0,2.239148E0,4.886809E0,0E0,0E0,0E0,0E0,0E0,0E0],"parents":[2147483647,0,0,1,1,2,2,3,3,4,4,7,7,8,8,12,12,14,14,15,15,16,16],"right_children":[2,4,6,8,10,-1,-1,12,14,-1,-1,-1,16,-1,18,20,22,-1,-1,-1,-1,-1,-1],"split_conditions":[8.9E1,4E0,1E1,1.67E1,1.33E1,3.7461028E-2,6.1738016E-3,5.7E0,2.21E1,-1.4003224E-3,3.446019E-2,-2.0741148E-2,3.3E1,-2.9557705E-2,2.61E1,9E0,3.9E1,2.1327434E-2,-2.341802E-2,2.1235803E-2,2.1141364E-4,-1.6600737E-2,5.889754E-3],"split_indices":[0,2,16,15,14,0,0,15,14,0,0,0,11,0,14,16,11,0,0,0,0,0,0],"split_type":[0,0,0,0,0,0,0,0,0,0,0,0,0,0,0,0,0,0,0,0,0,0,0],"sum_hessian":[2.5152707E2,2.2707854E2,2.444853E1,2.042545E2,2.282404E1,1.2123281E1,1.232525E1,1.6456622E2,3.968827E1,1.02435465E1,1.2580492E1,1.0882354E1,1.5368387E2,1.3603527E1,2.6084745E1,4.9721554E1,1.0396232E2,1.0205194E1,1.587955E1,2.490616E1,2.4815393E1,3.6269604E1,6.769271E1],"tree_param":{"num_deleted":"0","num_feature":"19","num_nodes":"23","size_leaf_vector":"1"}},{"base_weights":[-3.1735174E-2,-8.3869405E-2,2.4915658E-1,4.028561E-3,-3.018387E-1,4.4173265E-1,-1.0676183E-2,-1.3121988E-1,1.283633E-1,-2.9039556E-2,-4.5462123E-1,8.663262E-3,3.4485906E-2,-2.3345487E-1,1.8853482E-2,4.672813E-1,1.0379612E-3,1.3608555E-2,-1.5130232E-2,-2.6046553E-1,-3.2243147E-2,-5.362581E-2,-4.8046675E-1,4.1215945E-2,4.2292243E-3,-1.940876E-1,1.8143229E-1,-4.8782844E-3,-1.9701166E-2,-9.325265E-3,1.248046E-2,-3.9126303E-2,-8.2190065E-3,-2.8859172E-2,2.7398372E-3,-9.787887E-3,1.9920528E-2],"categories":[],"categories_nodes":[],"categories_segments":[],"categories_sizes":[],"default_left":[0,0,0,0,0,0,0,0,0,0,0,0,0,0,0,0,0,0,0,0,0,0,0,0,0,0,0,0,0,0,0,0,0,0,0,0,0],"id":47,"left_children":[1,3,5,7,9,11,-1,13,15,17,19,-1,-1,21,-1,23,25,-1,-1,27,-1,29,31,-1,-1,33,35,-1,-1,-1,-1,-1,-1,-1,-1,-1,-1],"loss_changes":[3.8037226E0,4.1899047E0,3.7199106E0,2.6533768E0,2.6059318E0,1.8150501E0,0E0,4.016155E0,3.5464468E0,2.029312E0,1.3173571E0,0E0,0E0,2.7971761E0,0E0,2.9969754E0,2.1736033E0,0E0,0E0,4.3104756E-1,0E0,1.5737898E0,2.415699E0,0E0,0E0,2.8602562E0,2.7037864E0,0E0,0E0,0E0,0E0,0E0,0E0,0E0,0E0,0E0,0E0],"parents":[2147483647,0,0,1,1,2,2,3,3,4,4,5,5,7,7,8,8,9,9,10,10,13,13,15,15,16,16,19,19,21,21,22,22,25,25,26,26],"right_children":[2,4,6,8,10,12,-1,14,16,18,20,-1,-1,22,-1,24,26,-1,-1,28,-1,30,32,-1,-1,34,36,-1,-1,-1,-1,-1,-1,-1,-1,-1,-1],"split_conditions":[1E0,1.8E1,2.11E1,4E-1,5.7E1,1.1E1,-1.0676183E-2,2.11E1,3.2E1,1E0,8.2E1,8.663262E-3,3.4485906E-2,5.9E1,1.8853482E-2,1E0,3E0,1.3608555E-2,-1.5130232E-2,2.6E1,-3.2243147E-2,8.5E1,1E0,4.1215945E-2,4.2292243E-3,1.34E1,3.9E1,-4.8782844E-3,-1.9701166E-2,-9.325265E-3,1.248046E-2,-3.9126303E-2,-8.2190065E-3,-2.8859172E-2,2.7398372E-3,-9.787887E-3,1.9920528E-2],"split_indices":[3,16,10,18,8,16,0,10,11,4,0,0,0,9,0,1,2,0,0,16,0,0,1,0,0,10,11,0,0,0,0,0,0,0,0,0,0],"split_type":[0,0,0,0,0,0,0,0,0,0,0,0,0,0,0,0,0,0,0,0,0,0,0,0,0,0,0,0,0,0,0,0,0,0,0,0,0],"sum_hessian":[2.5731784E2,2.176271E2,3.969073E1,1.5578642E2,6.184068E1,2.8057821E1,1.163291E1,7.459181E1,8.119461E1,2.262785E1,3.921283E1,1.4288201E1,1.376962E1,6.2551247E1,1.2040563E1,2.1444113E1,5.97505E1,1.0772173E1,1.1855677E1,2.0579283E1,1.8633549E1,3.6902596E1,2.564865E1,1.0496973E1,1.0947141E1,2.8666813E1,3.1083687E1,1.0050836E1,1.0528446E1,2.5926422E1,1.0976174E1,1.2360763E1,1.3287888E1,1.0769992E1,1.789682E1,1.138685E1,1.9696838E1],"tree_param":{"num_deleted":"0","num_feature":"19","num_nodes":"37","size_leaf_vector":"1"}},{"base_weights":[-8.825794E-3,2.283999E-2,-4.354336E-2,-2.64099E-3,-3.676745E-1,-5.7704475E-2,2.8783765E-1,-3.1934518E-3,-3.2218326E-2,-2.0450948E-2,-2.0672439E-2,4.0226556E-2,3.7626907E-2,-9.654443E-2,1.99719E-1,-1.5557773E-2,2.0579359E-2,-1.5148829E-2,7.060068E-4,-6.9825733E-3,2.5211489E-2],"categories":[],"categories_nodes":[],"categories_segments":[],"categories_sizes":[],"default_left":[0,0,0,0,0,0,0,0,0,0,0,0,0,0,0,0,0,0,0,0,0],"id":48,"left_children":[1,-1,3,5,7,9,11,-1,-1,13,-1,-1,15,17,19,-1,-1,-1,-1,-1,-1],"loss_changes":[4.1485453E0,0E0,3.1622212E0,3.4213357E0,2.205554E0,2.374082E0,4.376683E0,0E0,0E0,2.7632957E0,0E0,0E0,3.2604136E0,2.8003314E0,4.4514656E0,0E0,0E0,0E0,0E0,0E0,0E0],"parents":[2147483647,0,0,2,2,3,3,4,4,5,5,6,6,9,9,12,12,13,13,14,14],"right_children":[2,-1,4,6,8,10,12,-1,-1,14,-1,-1,16,18,20,-1,-1,-1,-1,-1,-1],"split_conditions":[1.4E1,2.283999E-2,2.83E1,2.5E1,1E0,2.37E1,1.11E1,-3.1934518E-3,-3.2218326E-2,8.6E1,-2.0672439E-2,4.0226556E-2,8.4E1,4.6E1,1.82E1,-1.5557773E-2,2.0579359E-2,-1.5148829E-2,7.060068E-4,-6.9825733E-3,2.5211489E-2],"split_indices":[12,0,14,14,1,14,10,0,0,0,0,0,0,8,14,0,0,0,0,0,0],"split_type":[0,0,0,0,0,0,0,0,0,0,0,0,0,0,0,0,0,0,0,0,0],"sum_hessian":[2.5440094E2,1.6808664E1,2.3759227E2,2.11865E2,2.572727E1,1.7877715E2,3.3087864E1,1.2849482E1,1.2877789E1,1.6278752E2,1.5989615E1,1.007247E1,2.3015394E1,1.21393814E2,4.1393715E1,1.1995483E1,1.101991E1,4.175912E1,7.963469E1,1.983237E1,2.1561344E1],"tree_param":{"num_deleted":"0","num_feature":"19","num_nodes":"21","size_leaf_vector":"1"}},{"base_weights":[1.8873537E-2,-1.2551564E-1,1.3259454E-1,-2.3869732E-2,-6.317079E-2,1.8544966E-1,-1.3236848E-2,-1.5751669E-1,1.6416872E-2,2.8744143E-1,-6.441228E-2,9.353458E-3,-2.5038016E-1,1.853101E-1,4.902744E-2,-1.7979879E-2,1.6445686E-1,-3.3341315E-2,-8.626912E-2,4.6637133E-1,1.6040437E-2,-9.2431525E-4,1.7547673E-2,5.787836E-3,-2.4752757E-2,3.6399316E-2,3.1327114E-3,2.1299513E-2,-5.6129857E-3],"categories":[],"categories_nodes":[],"categories_segments":[],"categories_sizes":[],"default_left":[0,0,0,0,0,0,0,0,0,0,0,0,0,0,0,0,0,0,0,0,0,0,0,0,0,0,0,0,0],"id":49,"left_children":[1,3,5,-1,7,9,-1,11,-1,13,15,-1,17,19,-1,-1,21,-1,23,25,27,-1,-1,-1,-1,-1,-1,-1,-1],"loss_changes":[4.2892017E0,2.4961367E0,3.1162162E0,0E0,3.7076569E0,3.3183575E0,0E0,2.6206498E0,0E0,6.3404236E0,2.6501172E0,0E0,4.3018274E0,3.8716154E0,0E0,0E0,7.66933E-1,0E0,3.930861E0,3.1875882E0,2.7788556E0,0E0,0E0,0E0,0E0,0E0,0E0,0E0,0E0],"parents":[2147483647,0,0,1,1,2,2,4,4,5,5,7,7,9,9,10,10,12,12,13,13,16,16,18,18,19,19,20,20],"right_children":[2,4,6,-1,8,10,-1,12,-1,14,16,-1,18,20,-1,-1,22,-1,24,26,28,-1,-1,-1,-1,-1,-1,-1,-1],"split_conditions":[4.5E1,2E0,2.33E1,-2.3869732E-2,2.4E1,6E-1,-1.3236848E-2,1.6E1,1.6416872E-2,5.3E-1,1.29E1,9.353458E-3,2.05E1,5.6E1,4.902744E-2,-1.7979879E-2,2.1E1,-3.3341315E-2,4E1,4.2E-1,4.4E1,-9.2431525E-4,1.7547673E-2,5.787836E-3,-2.4752757E-2,3.6399316E-2,3.1327114E-3,2.1299513E-2,-5.6129857E-3],"split_indices":[9,2,10,0,12,17,0,14,0,17,15,0,14,9,0,0,16,0,9,17,13,0,0,0,0,0,0,0,0],"split_type":[0,0,0,0,0,0,0,0,0,0,0,0,0,0,0,0,0,0,0,0,0,0,0,0,0,0,0,0,0],"sum_hessian":[2.592033E2,1.1415692E2,1.4504637E2,1.6179768E1,9.797716E1,1.2848755E2,1.6558826E1,7.943301E1,1.8544147E1,9.113608E1,3.7351463E1,1.6647003E1,6.2786007E1,8.05362E1,1.0599876E1,1.6062967E1,2.1288498E1,1.6882336E1,4.590367E1,